
//<![CDATA[

// a few things don't have var in front of them - they update already existing variables the game needs
lanesSide = 3;
patchesAhead = 26;
patchesBehind = 6;
trainIterations = 50000;

// the number of other autonomous vehicles controlled by your network
otherAgents = 0; // max of 10

var num_inputs = (lanesSide * 2 + 1) * (patchesAhead + patchesBehind);
var num_actions = 5;
var temporal_window = 0;
var network_size = num_inputs * temporal_window + num_actions * temporal_window + num_inputs;

var layer_defs = [];
    layer_defs.push({
    type: 'input',
    out_sx: 1,
    out_sy: 1,
    out_depth: network_size
});
layer_defs.push({
    type: 'fc',
    num_neurons: 16,
    activation: 'relu'
});
layer_defs.push({
    type: 'regression',
    num_neurons: num_actions
});

var tdtrainer_options = {
    learning_rate: 0.001,
    momentum: 0.0,
    batch_size: 64,
    l2_decay: 0.01
};

var opt = {};
opt.temporal_window = temporal_window;
opt.experience_size = 3000;
opt.start_learn_threshold = 500;
opt.gamma = 0.7;
opt.learning_steps_total = 10000;
opt.learning_steps_burnin = 1000;
opt.epsilon_min = 0.0;
opt.epsilon_test_time = 0.0;
opt.layer_defs = layer_defs;
opt.tdtrainer_options = tdtrainer_options;

brain = new deepqlearn.Brain(num_inputs, num_actions, opt);

learn = function (state, lastReward) {
brain.backward(lastReward);
var action = brain.forward(state);

draw_net();
draw_stats();

return action;
}

//]]>

/*###########*/
if (brain) {
brain.value_net.fromJSON({"layers":[{"out_depth":224,"out_sx":1,"out_sy":1,"layer_type":"input"},{"out_depth":16,"out_sx":1,"out_sy":1,"layer_type":"fc","num_inputs":224,"l1_decay_mul":0,"l2_decay_mul":1,"filters":[{"sx":1,"sy":1,"depth":224,"w":{"0":-0.025766372808948564,"1":-0.020136331715473795,"2":-0.008743356300771674,"3":0.057342325309651915,"4":-0.048357194192780194,"5":0.04375746098017377,"6":-0.05408490264472615,"7":0.009784372519273464,"8":0.16047420505059817,"9":0.04280630849104381,"10":-0.05691066534210525,"11":-0.04666623145593251,"12":-0.0019018329325436877,"13":0.06254112221069846,"14":-0.07320779470623323,"15":-0.0947455699905867,"16":0.031224653484728245,"17":0.09433311567148236,"18":-0.10177279304616443,"19":0.014598213306835129,"20":-0.03385101018172009,"21":0.000983308347391515,"22":0.10618229701880867,"23":0.03561600941447774,"24":0.1478875398776273,"25":-0.03180348794889657,"26":0.049832683360615894,"27":0.1656302591785956,"28":-0.08370426545538856,"29":0.03588627345931435,"30":0.015603238693457856,"31":-0.007988633400091125,"32":0.1103630932094977,"33":0.09724914651346643,"34":0.06484085136426518,"35":-0.00796267867962236,"36":0.005455086590046039,"37":-0.03940415378938093,"38":0.07416108442594639,"39":0.029976579627301415,"40":0.08912153181055435,"41":-0.0022815402070724246,"42":-0.0065240173082318905,"43":0.05051824209749257,"44":0.10718504342932023,"45":0.12261806110740299,"46":-0.05346937294622935,"47":-0.05379962799499014,"48":0.09025742493326018,"49":-0.008428442449074572,"50":0.08691449330058292,"51":-0.09331074438101407,"52":-0.03767359738992494,"53":0.0889690203914078,"54":-0.07160697819564178,"55":0.16542303846504675,"56":0.05611337609974074,"57":0.020846310340289047,"58":0.04529736573055348,"59":0.09854409001508678,"60":-0.06523154266395492,"61":0.060222703892569056,"62":-0.013363224787284002,"63":0.07176701281689947,"64":0.015490560428740415,"65":0.023053255144844634,"66":0.010746988250301952,"67":-0.03843573276046469,"68":-0.01804272157273055,"69":-0.047464390346660806,"70":0.02691539872785017,"71":0.02357715137084876,"72":-0.11943832514757728,"73":0.12603436430441423,"74":-0.06167552899141082,"75":0.060638842613805685,"76":0.0008139008092261069,"77":-0.04326841963920703,"78":-0.06843115933541855,"79":-0.11964349264186086,"80":0.09385596824579258,"81":-0.013587403042796313,"82":0.025833262487770174,"83":0.08083545462428546,"84":0.10167792447700005,"85":0.10791198558409461,"86":0.11304534238728749,"87":-0.029699551990778054,"88":0.04044371008473999,"89":0.03514652528270373,"90":0.013632220891641652,"91":-0.037346524335224056,"92":0.020170509186297918,"93":0.006926035459122306,"94":0.030248731783739526,"95":0.014299852391781174,"96":0.0005739573335658874,"97":0.048907104854716305,"98":0.010918459843773449,"99":-0.05387864273160116,"100":0.011376384116181741,"101":0.17983167332762875,"102":-0.03588236837223956,"103":0.07032861759994949,"104":0.043556605962621314,"105":0.05448820524136355,"106":-0.08468419976990652,"107":0.06654308088359075,"108":0.034073270480429706,"109":-0.014708530871348487,"110":-0.018762381898815655,"111":-0.011189215487772158,"112":-0.027627717864930904,"113":-0.06227353677304757,"114":0.06078843895046649,"115":0.07726548170342527,"116":-0.07106207481004269,"117":0.09111310439248246,"118":0.12032941139575566,"119":-0.10384892366839932,"120":-0.03827167743614786,"121":0.067889367372105,"122":0.07630753302933978,"123":0.13993529384403053,"124":0.04912970166540398,"125":0.1579671708699803,"126":0.054301096620233975,"127":0.05164196944598947,"128":-0.032301630253645144,"129":0.14032215975433893,"130":-0.06693909515533475,"131":0.07046102919250047,"132":-0.023490672709259752,"133":-0.0025285287736010595,"134":-0.15540870200591117,"135":-0.10816839148728634,"136":0.03064012431753833,"137":-0.015975557595777734,"138":-0.07429908556977194,"139":-0.001975010972169311,"140":-0.144363368391305,"141":-0.013542578673755022,"142":-0.07374363400479622,"143":0.1084965003623447,"144":0.13023537463579807,"145":0.032938999266822325,"146":0.08431226546924302,"147":0.037726638787293786,"148":0.017921901110973425,"149":-0.01722982662025953,"150":-0.0076293601308137,"151":0.0010024379372870892,"152":0.14804070039773431,"153":0.03579813074220211,"154":-0.0034600171313219842,"155":-0.08561227975100315,"156":-0.12211505440671147,"157":0.0004548281554075944,"158":-0.04586828680965445,"159":0.023098539791194615,"160":-0.03775423924914846,"161":0.039601144886294744,"162":-0.015792011923743177,"163":-0.05603629348572401,"164":0.10524665214276556,"165":0.011581336613229458,"166":0.0036858855723380796,"167":0.0508906588997065,"168":0.06391286243699625,"169":0.00522786888525579,"170":-0.13170427933746123,"171":0.029771483076848734,"172":-0.01761015063419052,"173":0.04955140688019571,"174":0.1020963772858757,"175":0.016001441730626013,"176":-0.12184773551518449,"177":-0.12345098146888342,"178":0.10438672928706058,"179":0.003917263263904928,"180":0.07415781257710799,"181":0.11677568566066952,"182":-0.034181063022503705,"183":-0.015955882984307928,"184":0.028087347522523818,"185":0.05270158540540862,"186":0.07006314755581958,"187":0.0036927912729197124,"188":0.018147981355155985,"189":-0.05177979090820696,"190":0.09547078041929752,"191":-0.04395337390259857,"192":-0.14064627351055817,"193":0.04352025738673575,"194":0.014036257209067421,"195":-0.04789042772889162,"196":0.01627000251463362,"197":-0.08627164700141929,"198":-0.0827775074143167,"199":-0.06587303510852113,"200":-0.00604311799990878,"201":-0.08658616802911337,"202":0.0014515997868248455,"203":0.012798628344429372,"204":-0.11220651491186334,"205":-0.0569107819179836,"206":0.010200605185019366,"207":0.0589544083659827,"208":0.06028071758805715,"209":0.031052133741510023,"210":0.1426406105425417,"211":0.08689204697567354,"212":0.09546133881153308,"213":0.07881031291301391,"214":0.01758696101962962,"215":-0.05602978014170739,"216":0.09056024754031972,"217":0.10003383009454793,"218":0.06576700969614961,"219":0.11485066179681386,"220":0.09907389458085075,"221":-0.0419413494808031,"222":-0.10606729208540841,"223":0.0734415515716838}},{"sx":1,"sy":1,"depth":224,"w":{"0":-0.03402185226107297,"1":0.030663518985854628,"2":0.0021076496035232176,"3":-0.13436737465917514,"4":-0.12382749402315393,"5":-0.06839689278487314,"6":0.04341323064419133,"7":-0.0892865365762483,"8":-0.0014104566432398319,"9":-0.02162283462722484,"10":-0.0000701528509643711,"11":0.03717574497922259,"12":0.051900890416771754,"13":-0.08101198733434956,"14":0.05705852044550255,"15":-0.043042011224803556,"16":0.015340773325661753,"17":0.04991511382799423,"18":-0.02503007553234112,"19":-0.09850243078419908,"20":-0.05364137767967033,"21":0.044547245474231376,"22":0.04350805150834966,"23":-0.0033383536285428008,"24":0.03222119733246165,"25":-0.04243449275133189,"26":0.018387274459678193,"27":-0.048109286106176444,"28":0.046585160801830984,"29":-0.020879014288755948,"30":-0.05089113464815212,"31":0.049894278649491954,"32":-0.03541233904743411,"33":-0.08488892899603687,"34":0.04562492438432735,"35":-0.13186538232934053,"36":0.027057308542031082,"37":0.013882204651099362,"38":0.03598819926367848,"39":-0.002710378358791305,"40":0.006674364083516978,"41":0.009174553469808375,"42":-0.001248120783240786,"43":-0.04269530556968108,"44":0.01611368838137761,"45":-0.021768857350273552,"46":0.09034201561289879,"47":-0.017723555432038785,"48":-0.03740992512981942,"49":0.1217907964398041,"50":-0.0959127071213647,"51":-0.04413239699271473,"52":-0.007187821236958209,"53":0.006739766633257802,"54":0.03563189915281082,"55":0.01253834520482809,"56":-0.03026080098510562,"57":0.030191596569610755,"58":-0.015392710347786671,"59":-0.01380086048518175,"60":0.031055591951913337,"61":-0.011020615070752537,"62":-0.06817624634231256,"63":0.03838597561373571,"64":0.028848433313503632,"65":0.08359913385578327,"66":0.1329683639734507,"67":-0.02429812133935775,"68":-0.04975476624413611,"69":0.06736575188532051,"70":0.005031278798655786,"71":0.05554999544749016,"72":0.023069560313805172,"73":0.05684095284802759,"74":0.09565113746444269,"75":0.03373039517710362,"76":-0.025281618219668598,"77":0.125574946868578,"78":-0.07487325974918338,"79":-0.02235605007891377,"80":0.062203811477152,"81":0.030481841013895828,"82":0.06879993703428414,"83":-0.1037018926937233,"84":-0.03161915323192657,"85":-0.049744960034552414,"86":0.020042773581283698,"87":0.21543300755939207,"88":-0.04191082373751298,"89":0.020959203448104036,"90":-0.06832741041589253,"91":0.07511287974033232,"92":0.03624551661051918,"93":0.034030212845635455,"94":0.11776568793254137,"95":0.04616378877912051,"96":-0.010929514154279932,"97":-0.0911630567322011,"98":-0.011652050083849924,"99":0.04252344917365286,"100":-0.04103509627849901,"101":0.12751370432347006,"102":0.020366206790046876,"103":0.018655409786424684,"104":-0.028426596252882172,"105":0.060246529721463375,"106":-0.04468592620131272,"107":-0.01270292660170419,"108":0.2681436227863897,"109":0.1273685742487804,"110":0.07841824868587385,"111":0.02209435984674438,"112":-0.05962765407952671,"113":-0.0969506095076945,"114":0.029134726940520567,"115":0.3142783775474277,"116":0.1072171481214358,"117":-0.024307634331149602,"118":0.0029344764361846744,"119":0.03501645794130593,"120":-0.011348505954468636,"121":-0.0728927106568906,"122":0.345099934682969,"123":0.14144020728539347,"124":-0.04188552621914675,"125":0.08448987234446893,"126":-0.002100035203173788,"127":0.02667279513314956,"128":0.0028021277563502825,"129":0.2538315712393317,"130":0.19801254279387487,"131":0.03300884747981942,"132":-0.09968907262370195,"133":0.014950914181739465,"134":0.012535130227499237,"135":0.024327393520333102,"136":0.6728346598925178,"137":0.32680012212509457,"138":0.012613048186758319,"139":0.02093409042604978,"140":-0.11721293985052479,"141":-0.08242247392416147,"142":-0.003553471294899207,"143":0.6671858659688871,"144":0.3814545742402013,"145":-0.0006151157404976102,"146":0.06897374518814489,"147":0.10492384527934454,"148":0.01125330212409762,"149":-0.09646395914532302,"150":0.610232309738286,"151":0.35517718703551104,"152":0.023275863015018865,"153":0.09129981058918904,"154":-0.019846575058952435,"155":0.030492210354836315,"156":-0.08517455010470533,"157":0.6828331623384412,"158":0.23508859996009165,"159":-0.03684218802202875,"160":-0.045904832656521816,"161":0.0001752988705566547,"162":-0.0059653303853591955,"163":-0.04038908791366192,"164":-0.2749701540407494,"165":0.36344122777267157,"166":0.12175984221626741,"167":0.11554941779457954,"168":-0.041058795989066865,"169":-0.01120186185958377,"170":-0.07006608876439195,"171":-0.3217734771834593,"172":0.35242199352140025,"173":-0.06329238884787762,"174":-0.011440150066850212,"175":0.020204694509872848,"176":-0.002819767362810277,"177":-0.07329532234886069,"178":-0.3078822497610453,"179":0.3607323268477159,"180":0.04663674579214428,"181":0.0977688331993448,"182":0.028189997551541817,"183":0.005940658346720457,"184":-0.07782248674616268,"185":0.04395382959131841,"186":0.3015259143465558,"187":-0.07365702194036602,"188":-0.021435517848246786,"189":0.0019244802893553178,"190":-0.035072009969252166,"191":-0.11279925078434476,"192":0.11011712175741596,"193":0.24589202561078485,"194":0.0817628650529481,"195":0.0033343688020665463,"196":0.024310086089573975,"197":-0.06434646875756767,"198":-0.12439037855397939,"199":-0.025089233876198127,"200":0.2799438947199404,"201":-0.07537697183856265,"202":0.02883198803706742,"203":-0.014392880637425857,"204":0.004419192497438176,"205":-0.16254870319106673,"206":0.07453495125679212,"207":0.3992412912485863,"208":0.06616053354535673,"209":-0.0023424350792915333,"210":0.04424795608345772,"211":0.07448984597985349,"212":-0.0010180575616626686,"213":-0.3285527287251022,"214":-0.03389823346524152,"215":-0.06847813897880216,"216":0.012770207546491656,"217":-0.03633030577348823,"218":0.06923027553239555,"219":-0.026463679389704706,"220":-0.31124597165186496,"221":-0.10209004439170774,"222":0.06114749684340718,"223":0.03901029974425452}},{"sx":1,"sy":1,"depth":224,"w":{"0":0.103292793104819,"1":0.02175189045171321,"2":-0.06910119374348848,"3":-0.00594854391206996,"4":-0.005106190438576477,"5":0.02328814426016676,"6":-0.03899889531515667,"7":0.015478432399571439,"8":-0.08278349923436536,"9":0.004874276648775644,"10":0.08008880629461475,"11":0.11946205667731884,"12":0.00029178812105730515,"13":-0.016930033893037755,"14":0.006291620485121546,"15":0.06564917588300805,"16":-0.10697075034249938,"17":0.010453566374377795,"18":0.018250591598853505,"19":-0.001942800033632185,"20":-0.042325480052711334,"21":-0.08912511043335877,"22":0.01681606851777513,"23":-0.11207067504401101,"24":-0.08383455612206592,"25":-0.018520294324873964,"26":-0.08129577615271721,"27":-0.021617797175749427,"28":-0.023477753821580093,"29":-0.08981357446396286,"30":-0.08817738085554204,"31":0.0444481222440206,"32":-0.07416009186141914,"33":0.007600612796284503,"34":-0.02438862808507324,"35":-0.0036654490407713606,"36":0.007356845096366298,"37":-0.04296149227542462,"38":-0.0344092155714484,"39":-0.07664088125975047,"40":0.034051749131503474,"41":-0.05736589408170293,"42":0.03229280837653365,"43":-0.07420865449209041,"44":-0.029890006287213174,"45":0.20077547705492077,"46":-0.03614110962180039,"47":0.05425391657506676,"48":0.09420662080457608,"49":0.07407893172211624,"50":0.07177606615708133,"51":-0.17112920247293753,"52":-0.015395489708884786,"53":0.1460573110963761,"54":-0.008885753466354868,"55":0.004151301298168967,"56":0.0030100463656119038,"57":0.07717786180682612,"58":0.10286798473063123,"59":-0.00844416753246113,"60":-0.0807496195350651,"61":0.040321876073447886,"62":0.02779741197833963,"63":-0.16376912082412914,"64":0.007257972451991055,"65":-0.06287181086767357,"66":-0.12301417993725623,"67":0.11646461400206283,"68":0.007033834988606014,"69":0.007818416567519566,"70":-0.04616728836361145,"71":-0.04387395059748245,"72":0.01704083556512023,"73":-0.009268832041761314,"74":-0.0736982111324835,"75":-0.10475062136599361,"76":0.04380018180236074,"77":0.07474553384000016,"78":0.02439032129455765,"79":-0.024020585177243495,"80":-0.13805829795499347,"81":-0.07698258308962781,"82":-0.02554208524994484,"83":-0.09901715834524112,"84":-0.019110610046650975,"85":0.07126286899646742,"86":-0.05536566987060143,"87":0.02100880020742907,"88":-0.04258280619520422,"89":0.012011379516131007,"90":0.06532011166462104,"91":0.04183372770807269,"92":0.03313185065782004,"93":-0.020461225050214474,"94":-0.053631822840654465,"95":0.029918940382753282,"96":-0.02149449855922923,"97":-0.03672893739115622,"98":-0.04760568326220421,"99":0.046857198268959274,"100":-0.08554874796855001,"101":-0.14203846524833041,"102":0.04007753638096486,"103":0.05161713626870189,"104":-0.016108053681303084,"105":0.07223529373482433,"106":-0.00016648992588668487,"107":-0.0003643328366173972,"108":0.07890949501131848,"109":0.043113676800377976,"110":-0.019243319029996535,"111":-0.06115685117661705,"112":-0.08154871551812314,"113":-0.01379687540953276,"114":0.030121213521563987,"115":-0.18326601053460762,"116":0.0043064574233886285,"117":0.021375792176725843,"118":0.04816148474627614,"119":-0.03989366456012764,"120":-0.04500906185054474,"121":0.08818673419603487,"122":-0.012834611960638573,"123":-0.0311355120700817,"124":-0.003937461347853483,"125":-0.03766933930534752,"126":0.031877882574590746,"127":-0.05851520154823432,"128":-0.09259403407983013,"129":0.07835274292667467,"130":0.008185924568839787,"131":-0.000554892851155837,"132":-0.002695435544198547,"133":-0.060578473688049195,"134":0.010339769065125919,"135":-0.009297617158879666,"136":0.06375641133230922,"137":0.017886565274269926,"138":-0.0020257539807163587,"139":-0.02649399762995025,"140":0.12610280819478195,"141":-0.007752725826074889,"142":-0.05684152699092573,"143":0.09353433323753625,"144":-0.04610286889328577,"145":-0.033714881426123174,"146":-0.07269416204833272,"147":0.024885950925821253,"148":-0.0315814155743104,"149":0.04283028067151011,"150":-0.13452017010754916,"151":0.04955359428837079,"152":0.03727873982262048,"153":-0.037526868799643426,"154":-0.009576008283929136,"155":-0.060581490516539785,"156":0.0011167290683233154,"157":0.05669778121181244,"158":-0.13462604130130604,"159":-0.046049469554946904,"160":0.025310912087734373,"161":-0.017384296964484687,"162":0.0041856400266252584,"163":0.06784343645630599,"164":0.1257037817371498,"165":0.01404696414670252,"166":0.00842537973673712,"167":0.038314375435137944,"168":-0.0030632830658449267,"169":0.10064463622888696,"170":-0.07585245751931748,"171":0.019346891508268363,"172":0.0575110287653437,"173":-0.03377474369447892,"174":0.022784417712863058,"175":-0.011458192285881194,"176":-0.05950690317611937,"177":0.037279471889947645,"178":-0.0029713645822599523,"179":0.007133235725033683,"180":-0.009562633779078141,"181":0.010400651783936146,"182":-0.08212812253669247,"183":-0.04547112672983856,"184":0.07399835712740578,"185":0.00545567824402838,"186":0.0007086516628089782,"187":0.01598234745257535,"188":0.046049126538171746,"189":-0.062213214572353535,"190":0.019410101358829618,"191":-0.022151149558037337,"192":-0.004275854009322234,"193":0.09169662910900486,"194":0.030948335171192384,"195":-0.07200338735742967,"196":-0.016171768791742407,"197":0.0681353014773881,"198":-0.0010796943600978675,"199":0.002112527214461374,"200":0.01184987355657558,"201":-0.007719422946592345,"202":0.06523990871704595,"203":-0.0666334623424506,"204":0.06818403780498025,"205":-0.04149217388989491,"206":0.14207436219340216,"207":0.033481859343444526,"208":-0.16411250406399724,"209":0.14720969647294557,"210":0.014409469845058299,"211":-0.0848565458124531,"212":0.007936020663757258,"213":0.0669007474742228,"214":-0.11274487561004987,"215":0.06576552865578984,"216":0.04410429814342406,"217":0.07288602470872063,"218":0.04951458687969254,"219":-0.016594646191331334,"220":0.008061023291401553,"221":0.031187093275468578,"222":0.11438860346125605,"223":0.05227470251020168}},{"sx":1,"sy":1,"depth":224,"w":{"0":-0.021785331117197743,"1":-0.04786916901854529,"2":-0.08818488905535767,"3":-0.01790220175253212,"4":-0.0527548186433392,"5":0.10670564385299054,"6":0.004431994187159221,"7":-0.07948969980300746,"8":-0.04525079968011435,"9":0.030324695179446047,"10":-0.0005191344984892222,"11":0.06904996957425617,"12":-0.005368355306329986,"13":0.08660007665681879,"14":0.007211304698368145,"15":-0.06425192855050627,"16":-0.13624193078578248,"17":0.06756788127958518,"18":-0.006842082113768286,"19":0.06314986507766009,"20":-0.09807549124037267,"21":-0.11282204306531321,"22":0.1527355143812466,"23":-0.0026273967227001213,"24":0.06244652995082208,"25":0.03068106334235901,"26":0.0023820681252652597,"27":0.028477333884256266,"28":0.06059860177439945,"29":-0.0714463167050873,"30":0.06091195010624236,"31":0.04966699904081788,"32":-0.05819707437024288,"33":0.01749002029853585,"34":0.04825973375218129,"35":-0.02202404812838641,"36":0.016500713307305966,"37":-0.18159607233986005,"38":0.03713858616223419,"39":0.005260446092780466,"40":-0.08393868088993577,"41":-0.000222569858706383,"42":0.012844721124446993,"43":-0.14297332022162018,"44":0.03868092027855589,"45":0.019059845215201338,"46":0.046617159183239526,"47":0.12698654005654494,"48":-0.005940279875841252,"49":-0.015517348458764983,"50":-0.03139724345860699,"51":-0.0044130387269129085,"52":0.04591904994694961,"53":0.15293005847979144,"54":0.07534016084860555,"55":-0.0062565167432377345,"56":0.017960467518929383,"57":-0.034191954718732716,"58":0.013250879721657978,"59":-0.084039231154616,"60":-0.052032973944076064,"61":-0.00937132200302504,"62":-0.008723242773138675,"63":0.0746511578315336,"64":0.034587420123446906,"65":0.04821880837472397,"66":0.03145307699862283,"67":0.028978914755090096,"68":-0.007080541813365743,"69":0.006514748891342819,"70":0.005462520366052859,"71":-0.02679133967083287,"72":-0.009794798607542557,"73":-0.039583897219589215,"74":-0.12739809341245278,"75":-0.00586443370151187,"76":-0.08319022200756565,"77":0.07274838015695353,"78":0.007942530445540857,"79":-0.031787184090285,"80":0.08631519778205456,"81":0.13159028083681024,"82":0.08870967206072718,"83":-0.060298856504849487,"84":0.02186129844043777,"85":-0.07532098237750477,"86":0.047421416921495464,"87":-0.002398329503367541,"88":-0.00657340092430836,"89":0.013725740160018256,"90":0.027121393124062084,"91":0.10818572066856699,"92":-0.029245985111985624,"93":-0.056444242871149616,"94":0.017626949626019763,"95":-0.0745348760955714,"96":0.15737488664987193,"97":-0.12604722752889766,"98":0.10919213303674317,"99":0.11378422319833083,"100":-0.02390392958707312,"101":-0.0719252059446785,"102":-0.060963327224629583,"103":0.016951798523532048,"104":0.09286783768998741,"105":-0.05617639173696002,"106":0.02062978214838944,"107":0.09837023021155704,"108":0.08560305753540633,"109":-0.009947642589242947,"110":0.057525064605068656,"111":0.027185522884462115,"112":-0.004115687564756275,"113":0.001652172849521734,"114":0.014140642472136434,"115":-0.07653442395084276,"116":0.13299860373095654,"117":-0.12458567411673813,"118":0.01537433088326516,"119":-0.01237998175206801,"120":0.06460044767270838,"121":-0.015581195782721189,"122":0.01502385900345099,"123":-0.11329943760945416,"124":-0.009595937425251102,"125":0.06999367856433125,"126":0.10596156719859728,"127":0.128308428109679,"128":0.08052311055034787,"129":0.03179690552787785,"130":-0.04436284927135206,"131":-0.02088697064116378,"132":-0.05176970782683106,"133":-0.017897404606774085,"134":0.0235271656962843,"135":0.25605380156295426,"136":-0.09798733042826249,"137":-0.12199316124932001,"138":-0.054402443082289614,"139":-0.02504163144065556,"140":-0.04252824845792918,"141":-0.005408018141373673,"142":0.19691128922830678,"143":-0.04034675359587019,"144":-0.26823235791324734,"145":0.08620039537469047,"146":0.0980937823831886,"147":0.10646811108245341,"148":-0.004210499612092171,"149":0.2578522611249221,"150":0.018838646414043578,"151":-0.1928570475268449,"152":-0.01950444475983975,"153":0.06530654974536644,"154":0.06403306349120828,"155":0.03429044955024589,"156":0.19905315834890733,"157":-0.005066877305546683,"158":-0.152914553311719,"159":-0.0559612426483608,"160":0.055231614825040985,"161":0.017520643653208868,"162":0.030798199378223392,"163":0.1939565504499761,"164":0.031284543979982045,"165":-0.07183685394258446,"166":-0.007874236649793481,"167":0.07191499731785453,"168":-0.01630824157864812,"169":-0.07793490323795606,"170":0.2798471815137035,"171":0.02315749483290544,"172":-0.19345878583763124,"173":-0.14539587130592324,"174":0.10206550187800856,"175":-0.07291000410295188,"176":0.008562521061637404,"177":0.2286248547626386,"178":0.15468677836113626,"179":-0.1258088736338025,"180":0.023207161834910568,"181":0.112382662349598,"182":0.037426669884880776,"183":0.04320843715525926,"184":0.12294807382824133,"185":0.09810618410838337,"186":-0.0186550103357965,"187":0.0670820374004676,"188":0.12065554837395397,"189":0.07782344561946437,"190":-0.005124708307670311,"191":0.18513041381675727,"192":0.056193146916101104,"193":0.04066571465530953,"194":0.07475139624985845,"195":-0.142169372895148,"196":-0.012368225494325905,"197":-0.118912291764019,"198":0.2963702963833772,"199":-0.02848099514954366,"200":-0.05452766479092668,"201":0.02650022943695774,"202":0.056780309256935606,"203":-0.11768862467768175,"204":-0.0728964618439011,"205":0.22836919090318725,"206":-0.05610868016025016,"207":-0.36768872809523795,"208":0.022488122593633076,"209":-0.03443480976766917,"210":-0.0023285758874796157,"211":0.06939846631143252,"212":0.021206461855422628,"213":0.008667059749794691,"214":-0.0007720945402609528,"215":0.06152668295003983,"216":0.030616929664714115,"217":0.011343073665312871,"218":0.023109406918417345,"219":-0.14139892272804785,"220":0.181466683759025,"221":0.0905106987972082,"222":-0.020936336106549467,"223":0.05743392473532725}},{"sx":1,"sy":1,"depth":224,"w":{"0":-0.09235869125236844,"1":-0.0762770964335836,"2":-0.06544785991438923,"3":-0.04990581290465104,"4":-0.07389638974461192,"5":0.042013704683449345,"6":0.05984064144476127,"7":-0.04935627625880712,"8":0.010287629508770966,"9":-0.08210367084152922,"10":-0.041007587985103476,"11":-0.006617904959452795,"12":-0.04188518316925937,"13":-0.011388744620037593,"14":0.042652274168941046,"15":0.07684547669749978,"16":0.014191805142620285,"17":-0.07889476934610683,"18":-0.05345127124477665,"19":0.06914811846550803,"20":0.11638776726080656,"21":-0.0877248032813981,"22":0.07714199819983117,"23":-0.06673739352181529,"24":0.05816518097013251,"25":-0.04460876339363272,"26":-0.00100016086640872,"27":0.021704282178697763,"28":0.07501884427653761,"29":0.017245260013093684,"30":-0.02981023610564843,"31":0.028288680131820763,"32":0.014620871949416117,"33":-0.06616658323770916,"34":-0.010453085036304094,"35":0.07567309768708166,"36":0.144057020486352,"37":0.036359674832487796,"38":0.01059816346713544,"39":-0.044366697201458125,"40":0.029099148424476588,"41":0.020893293326119576,"42":-0.0657957920774402,"43":-0.008084780724793544,"44":0.04869567067847977,"45":-0.14395387783506233,"46":-0.07452564539016038,"47":-0.0017363722645211022,"48":0.0006904902924482895,"49":-0.03755201416743409,"50":-0.007403325330091283,"51":0.004585802100795208,"52":0.0007760067708766472,"53":0.10928162428713542,"54":-0.03176506494846359,"55":0.09156644487764272,"56":0.09130846799226505,"57":0.09874141179911651,"58":0.010499660177993687,"59":-0.019173910956996054,"60":-0.040291782181373324,"61":0.04562786427207078,"62":-0.07361321362325657,"63":-0.013706526329839111,"64":-0.08973429561449507,"65":-0.0764814316022937,"66":-0.031078018582833197,"67":-0.033490377937479755,"68":-0.026433121653062865,"69":0.0384207421865301,"70":0.032997537626821366,"71":-0.012655437413652345,"72":-0.10440607609014102,"73":-0.12598287485497747,"74":-0.030323941345401062,"75":0.04977117770978244,"76":0.034307782291466846,"77":0.027557107806423363,"78":-0.023519883589269205,"79":-0.018030676797377184,"80":-0.04578699790421089,"81":-0.011637637550687004,"82":-0.0517893109255992,"83":0.0662932085474592,"84":-0.027039658452389554,"85":0.0021616850885713378,"86":-0.01782547388525858,"87":-0.03009208534823117,"88":0.022248050842858257,"89":-0.061622992541678696,"90":-0.1098030058925617,"91":0.030054451096259194,"92":-0.04977204877327434,"93":0.06493576830142257,"94":-0.0560019220919425,"95":-0.025290022243056588,"96":-0.08184663966440739,"97":0.03550415754976271,"98":0.09485636563088186,"99":0.019446257957868508,"100":0.12664846898272872,"101":-0.02123648239160374,"102":0.12102537374132598,"103":0.01838830812853407,"104":0.0031443413859321453,"105":-0.022800577747655613,"106":0.05068542661910266,"107":0.11821309836929043,"108":-0.019679546451433428,"109":0.12413005944878584,"110":0.03906938955181437,"111":-0.05054497474259407,"112":0.030453692505170105,"113":0.0987696356008033,"114":-0.0007005927031410404,"115":-0.0163206732493187,"116":-0.13103516082143288,"117":0.05791506353410537,"118":-0.01646446660119696,"119":-0.09098080010269538,"120":-0.019774296057183942,"121":0.038642380215194755,"122":-0.12639782803625343,"123":0.07985503908741876,"124":-0.03326353977980655,"125":0.08752824989431639,"126":0.08608790077870879,"127":-0.013690008750944465,"128":0.24567108857807804,"129":-0.042726858270403775,"130":0.2891710734186273,"131":0.016353690031485082,"132":0.011302113100857993,"133":0.02119671085924883,"134":0.0525527420859363,"135":0.11054814238243103,"136":0.1575999204070493,"137":0.11132181006935808,"138":0.1023466846796179,"139":0.011884806857793811,"140":-0.01979286589383828,"141":-0.0033936398275307296,"142":0.31452144254825587,"143":0.0844413970483577,"144":0.3359497771586377,"145":-0.05673704681509293,"146":0.01954306019690072,"147":-0.017342435726094157,"148":0.06137329148376908,"149":0.2528517830324573,"150":0.21473071264065244,"151":0.21982038510594376,"152":-0.03146175376772576,"153":-0.03468234107812066,"154":-0.034817476509826986,"155":-0.07492562309082808,"156":0.16491783768535218,"157":0.18973641283647463,"158":0.29326243250222106,"159":0.1398252160118144,"160":0.0938624904350087,"161":0.09956256375742659,"162":0.055860859791159505,"163":0.31534502945349796,"164":-0.27529682410863543,"165":0.3616767025619705,"166":-0.027211048079750666,"167":-0.029936885886985117,"168":0.0054496598627492565,"169":0.13048769173680866,"170":0.31719801007960596,"171":-0.2938247562668787,"172":0.23420948637872566,"173":0.0483406111140269,"174":0.01877330130469014,"175":-0.007149248617129998,"176":-0.07908709640040791,"177":0.3409654816716028,"178":-0.37024379875217456,"179":0.31570417297883274,"180":-0.01247136130057172,"181":-0.023368843513874502,"182":-0.09527038516517096,"183":0.025016979108417575,"184":0.25960647499297257,"185":0.03313260062432055,"186":0.24682035218383527,"187":0.010489427683332067,"188":0.004193392004258077,"189":0.010297863569834179,"190":0.021077563618478797,"191":0.31276555126103395,"192":0.11151956401670687,"193":0.17219434583291013,"194":-0.023402611599629992,"195":-0.022710300560465604,"196":-0.03993252029623372,"197":0.01262560511742475,"198":0.22110669807267883,"199":-0.032077246256702746,"200":0.28476188344416187,"201":0.01367779494424348,"202":-0.06433389103214063,"203":-0.042960284926729826,"204":0.04086634633254595,"205":0.4491910636292951,"206":-0.0488663339809647,"207":0.4399057072010441,"208":-0.12294037383189821,"209":-0.026515011001491173,"210":0.010698040970464114,"211":-0.041382945061510704,"212":-0.012499026019073396,"213":-0.3657241653548168,"214":0.048554219590144915,"215":-0.06609625610233645,"216":0.018102265871607747,"217":0.013174341307356638,"218":-0.06395474155237822,"219":-0.10116619651500106,"220":-0.3083685743430701,"221":0.03430547167308569,"222":0.026559451168921677,"223":-0.0034480834128081555}},{"sx":1,"sy":1,"depth":224,"w":{"0":0.0629704096504538,"1":0.002403912615853433,"2":0.025741803325765224,"3":-0.020210268237338156,"4":0.006659705199259315,"5":-0.12833729961027993,"6":-0.09449361647313621,"7":-0.01314494346686798,"8":0.036517540712536024,"9":-0.012625034679925656,"10":0.01304334910841186,"11":0.07899274229713418,"12":-0.09311963269997683,"13":0.2049516223428377,"14":-0.06527071280386126,"15":0.05055743852765339,"16":-0.04981984114758546,"17":0.09320167685849531,"18":-0.05542483120756985,"19":-0.031158753268323246,"20":-0.05700855440292518,"21":0.03974892334269524,"22":-0.04962593074511299,"23":-0.003231388394982016,"24":-0.03756219995119474,"25":-0.07382794596875124,"26":-0.0734801417827924,"27":0.0036137406266710482,"28":0.020081200523681505,"29":-0.0736216637190627,"30":-0.08229164150145718,"31":-0.012625863843697786,"32":0.036976728207898574,"33":0.008258657044053186,"34":-0.00728797516569054,"35":0.09565261670542821,"36":0.028645192239446157,"37":-0.06625530422918241,"38":-0.09585934935354132,"39":0.030899837845286125,"40":-0.1564959042615771,"41":0.10709546068259627,"42":0.06338314282769539,"43":-0.1035303965145368,"44":-0.11876529308027715,"45":0.10826427042306405,"46":-0.046943071611825336,"47":-0.035217500839268084,"48":0.0014574610898304913,"49":-0.06995239499932474,"50":0.04059141455143254,"51":0.12061500231059986,"52":0.030406116570263226,"53":-0.08759159501878223,"54":-0.009362246853008743,"55":-0.09976100590931111,"56":0.01709305551699538,"57":0.09685466799463961,"58":-0.07618353028900375,"59":0.07101646737940957,"60":-0.10758050675134471,"61":-0.16826817752166676,"62":0.030622195319456216,"63":-0.015402023706981382,"64":-0.047937444180686704,"65":0.013047062742981147,"66":0.08595552588323317,"67":-0.0877499498590514,"68":-0.1044589644536881,"69":-0.06950353348003772,"70":0.033998822160180485,"71":-0.10514260343697807,"72":0.014096953254050125,"73":0.005286858864350338,"74":-0.0810140027465113,"75":-0.05609667671230445,"76":0.06167159327319213,"77":-0.03523969375312787,"78":0.037309931535428276,"79":-0.05801860031545552,"80":-0.10610173884362675,"81":-0.024249018923324164,"82":-0.021437473814254645,"83":-0.12050407762918257,"84":0.07366602942681594,"85":0.10479050322644265,"86":0.054385165988231406,"87":0.05857294345392588,"88":-0.04824476564997103,"89":0.003573039460346176,"90":-0.033909679049669426,"91":0.046259984853949436,"92":0.01824696019487752,"93":-0.05128294516308256,"94":-0.005935708275146247,"95":0.039617471722772295,"96":0.041865747550653795,"97":0.045008075745095875,"98":0.09748662744960337,"99":0.023064554200134386,"100":-0.013813249165257939,"101":-0.019486998753335125,"102":-0.015872498277360623,"103":-0.05225092966941155,"104":-0.07445674764547698,"105":0.13555759290002467,"106":0.033192963179246436,"107":0.07443760060890185,"108":0.03175378123980754,"109":0.0620939233030209,"110":-0.10480561765181699,"111":0.025312695729101928,"112":0.041735379500061585,"113":0.02703813431167481,"114":0.07062743288581966,"115":0.04410851176335623,"116":-0.009480679985190072,"117":-0.12354956550339427,"118":-0.03001262496170221,"119":0.06207491958109182,"120":0.008499298054227626,"121":-0.07143042373199994,"122":0.07711426493217205,"123":-0.00990389235100159,"124":0.05276796484658734,"125":-0.05551572255561492,"126":0.09412170212008332,"127":0.04469337933063557,"128":-0.04359349607769313,"129":-0.05030713539851982,"130":-0.03432017916856385,"131":0.027150287473991425,"132":-0.10682823122852127,"133":-0.026540497045468778,"134":0.12569396300954386,"135":-0.027513405793636817,"136":-0.044790658956544216,"137":-0.04948328686820398,"138":0.03587883410849111,"139":-0.0693746270987238,"140":0.07133387393916876,"141":-0.03465363874784894,"142":-0.15475814507220445,"143":-0.07847506333480911,"144":-0.08587509377429924,"145":0.03413723156370969,"146":0.09566073581548634,"147":0.03229247828395467,"148":-0.055215688138071664,"149":-0.06379885810408648,"150":0.008787122297675885,"151":0.020034561814272923,"152":-0.039202736391221085,"153":-0.06345209925822344,"154":0.09348927212216594,"155":-0.041202671082371925,"156":-0.14792698305171356,"157":-0.09769835722677937,"158":0.06617245355354726,"159":0.007555218328650908,"160":-0.05071528999979713,"161":0.04003765725017493,"162":-0.1499989768023448,"163":-0.037896222238595574,"164":0.03345033551460493,"165":-0.06271408010638221,"166":-0.09302339884751304,"167":-0.00001819139548670206,"168":0.08280862887953991,"169":0.04091142104339249,"170":-0.06795970906721599,"171":0.013894019196755272,"172":-0.006704213543428547,"173":-0.03339969180480601,"174":0.06148906230213634,"175":0.007492769168522131,"176":-0.011031608608931905,"177":-0.007263182598296145,"178":0.07184399367101366,"179":-0.17793569961546254,"180":-0.030079260391897473,"181":0.11210158587978591,"182":-0.017163162309327462,"183":0.021429367638332083,"184":0.03426516562068099,"185":-0.008013614139208477,"186":-0.006931802994504897,"187":0.05311664742101517,"188":-0.05315918676183289,"189":0.08248205221544437,"190":-0.08444474650331588,"191":0.09987422376790672,"192":0.09234536757939332,"193":0.025216014078043407,"194":0.05883507635157489,"195":-0.044179441607070824,"196":0.14315917014054783,"197":0.06021463356208124,"198":-0.13164743688909447,"199":-0.02344189746779841,"200":0.010361817045934306,"201":0.05133477155937694,"202":-0.015114223212195752,"203":-0.10790552166298233,"204":0.069899549080958,"205":-0.07013373608651696,"206":0.07385007511884863,"207":-0.044605357771647924,"208":0.13088368219267113,"209":-0.13995618783651226,"210":-0.018092381492211526,"211":0.10212189932499517,"212":-0.08472711806149419,"213":-0.02074575582958536,"214":-0.0049262338712298985,"215":0.031670507737369125,"216":-0.038562511690416114,"217":0.05586652386093401,"218":0.07737056391247293,"219":-0.07231253908575005,"220":0.02305775587987539,"221":-0.12084538782070386,"222":0.02118920262781778,"223":-0.008750802782461162}},{"sx":1,"sy":1,"depth":224,"w":{"0":-0.03632323131152102,"1":0.07872197625597142,"2":0.11216268565758461,"3":-0.20246066379079836,"4":-0.00787794380663325,"5":0.04392817046843594,"6":0.10027887707575987,"7":0.059654937471525275,"8":0.022499762210579137,"9":-0.025666617439230467,"10":-0.05953206096671786,"11":-0.002349424862178501,"12":-0.03581688516670036,"13":0.02524809413176115,"14":-0.13074555611197441,"15":0.002409648791759761,"16":-0.13057078582333434,"17":-0.03530207222803222,"18":-0.04203249960613385,"19":0.07498655775543593,"20":-0.10424897875112302,"21":0.07215619103968428,"22":0.029687526277618743,"23":0.09368156244850648,"24":-0.015829041868868618,"25":-0.0868741232828825,"26":-0.07170285219700132,"27":0.08678065929711573,"28":-0.03437672495066124,"29":-0.022180521389586975,"30":-0.05392535507853908,"31":0.045627870984720445,"32":0.008330608464031098,"33":-0.015570820327059977,"34":0.08675936784317866,"35":0.0004338816076283907,"36":-0.011223008681541679,"37":0.01901790420508472,"38":-0.14795643555635343,"39":-0.083871016716922,"40":0.11957544622135916,"41":0.06278025413721552,"42":-0.05574671780003402,"43":-0.08899067947685231,"44":-0.007939240702918635,"45":-0.07038605145078193,"46":-0.020996380036755254,"47":0.006285741081882845,"48":0.07529254596823308,"49":-0.09440436345529409,"50":-0.06670719160754136,"51":-0.04142163839971671,"52":-0.1334570356281782,"53":0.018590643209747817,"54":-0.002897258972603583,"55":0.06300074063846907,"56":-0.050538249423742514,"57":-0.032915361576519885,"58":-0.041817023719469416,"59":-0.07226807301651561,"60":-0.02483205930714944,"61":0.03691780151149348,"62":0.06797280249105192,"63":-0.09043635634827552,"64":-0.015761491069706035,"65":-0.06332558345497873,"66":-0.07673383831741841,"67":0.042429639015303125,"68":0.07944242982631541,"69":0.12515656007351925,"70":-0.008759477567819753,"71":-0.00742804458227039,"72":0.019075236238208684,"73":-0.007599873774073472,"74":0.14438388154451168,"75":-0.02962705089129927,"76":0.013906069341654241,"77":-0.13080840744347655,"78":0.027993989325545948,"79":-0.0049588856322295835,"80":-0.10624777025770474,"81":-0.1161127869626528,"82":-0.007902642444007428,"83":-0.03368462407912365,"84":-0.01987165258283889,"85":0.0727692155056741,"86":0.0059371827102633,"87":-0.010140978134538787,"88":-0.004926222570270043,"89":0.08282091616880334,"90":0.08340202247055233,"91":0.012350835272527151,"92":-0.10115910195343522,"93":0.0324619296903692,"94":-0.11345162387489371,"95":-0.10700565178955616,"96":-0.09321436161548632,"97":-0.05554693822698791,"98":0.02883338701318082,"99":-0.045044907511865906,"100":-0.0417933975558367,"101":0.05684774333521401,"102":-0.08474363944898455,"103":-0.0962731690523694,"104":0.012975187392348299,"105":0.08440245831597862,"106":-0.03500625140808224,"107":0.045774669617384,"108":-0.021064025472705725,"109":-0.01610105252322778,"110":0.07993007224449157,"111":-0.10070096879566186,"112":0.0584207129170661,"113":0.006093632352710148,"114":0.1052590555088758,"115":-0.05354941252457284,"116":0.06263130716954118,"117":0.009724897472399173,"118":0.18289285767189906,"119":-0.06817331515282624,"120":-0.1353343742313281,"121":-0.02560095890336368,"122":-0.04758839833598545,"123":0.02997802077537311,"124":0.055650121694559955,"125":0.031241692171165254,"126":-0.033125142858509336,"127":-0.012988177345071067,"128":0.005471316086687972,"129":-0.1010537514943934,"130":-0.09715937233091529,"131":-0.09130327176388073,"132":-0.09471583165418283,"133":-0.02134963205765144,"134":0.02940208317613859,"135":-0.06931834938828893,"136":-0.08896555013381062,"137":0.08113268149923121,"138":0.015664240704853952,"139":0.03958191453035723,"140":-0.031954740461493075,"141":-0.023183770835913508,"142":0.09318191707394378,"143":0.10336110864875986,"144":0.02305485531386747,"145":-0.09572732267453203,"146":0.06700646950274967,"147":-0.06915797277973279,"148":0.02272257022533912,"149":-0.038940886887695404,"150":0.04855611434555175,"151":0.07723738476562786,"152":-0.02390551471749101,"153":0.038393556556843955,"154":-0.10792950209992563,"155":-0.039255652300619275,"156":-0.050372106774468454,"157":0.056873938393439474,"158":-0.0720835056764481,"159":-0.010459329788963226,"160":0.10868939800119354,"161":-0.04898835738752227,"162":0.0008081353570871168,"163":0.002487203571126362,"164":0.11633560424940423,"165":-0.05853426895638675,"166":0.0800322216578563,"167":-0.04251185048034947,"168":0.046104594319309786,"169":-0.0006306373753825685,"170":-0.017913253131235263,"171":0.1386445335761628,"172":0.07974331778950648,"173":0.11056461257040191,"174":0.11009325071782886,"175":-0.1399849087958356,"176":-0.029753584421812394,"177":0.055510623667906274,"178":0.13171775070206743,"179":-0.10489469729149656,"180":0.13803182901152747,"181":0.031265061838997424,"182":0.01327779823567489,"183":-0.10416074278120396,"184":-0.029176805485956074,"185":0.11040881254301231,"186":0.040493578823783155,"187":0.06343177205362127,"188":0.061278345928344274,"189":0.012549730453379917,"190":0.02097514618775403,"191":0.08038163750786355,"192":-0.028066238150847245,"193":-0.05532698946528436,"194":-0.13373542193150562,"195":0.07667611746285406,"196":-0.07989768797624391,"197":-0.07288351207281756,"198":-0.07620369662952087,"199":0.03811216789067623,"200":-0.12520470707722536,"201":0.13278283904814986,"202":0.07657827066973134,"203":-0.08010575147257085,"204":0.1360665946342287,"205":-0.0533273617374835,"206":0.09639262776470138,"207":0.04549196044446204,"208":0.0517124311054169,"209":0.04401257549782312,"210":0.060269822138698304,"211":0.04297903400763518,"212":-0.009848569484317612,"213":0.02013758592794575,"214":0.08582709313556955,"215":0.08556068959001772,"216":0.1545799503618479,"217":-0.048149041867563296,"218":-0.018101905339101665,"219":0.07627892519565298,"220":0.15660636215455082,"221":0.024194413818561834,"222":0.12006750223053664,"223":0.08888851235046255}},{"sx":1,"sy":1,"depth":224,"w":{"0":-0.10503119834539001,"1":-0.046887932399120785,"2":-0.07054553763794143,"3":0.10823401964605217,"4":0.03192869999168078,"5":-0.0023409800177665316,"6":-0.13561536031092114,"7":0.004369217040989434,"8":0.11460159764672653,"9":-0.00995646513455394,"10":0.024390763970076654,"11":-0.09078343403370152,"12":-0.017607391517576444,"13":0.037852048687328006,"14":0.1523157902697165,"15":-0.006564940759901611,"16":-0.06149141866813007,"17":-0.060672961575555594,"18":0.0030210340035528305,"19":0.04999886617427659,"20":0.005088611541073887,"21":0.039745024425670426,"22":0.03372246734637699,"23":0.03804005348818584,"24":0.04481050445398824,"25":-0.035846737650146863,"26":0.07111338310281068,"27":-0.04463238161146994,"28":0.12896908836911514,"29":0.009379355145295821,"30":0.08352759103828412,"31":0.18361011640975575,"32":-0.015451548509418465,"33":-0.022823460635211037,"34":0.1138210208779016,"35":0.0410405027034592,"36":-0.11850268356705812,"37":-0.01722951714554935,"38":0.08090620688094391,"39":-0.009353824404153157,"40":0.08640479538784446,"41":-0.08868929231012712,"42":0.0015890297422313665,"43":0.04247121791892294,"44":0.0017194137506639801,"45":-0.027722600694954917,"46":-0.004260294133327265,"47":0.024119611402000286,"48":-0.041735359425205336,"49":-0.04211472006839968,"50":-0.04975710867811565,"51":0.008936088310155618,"52":0.09297800296058349,"53":-0.040548341439247335,"54":0.0470022831072771,"55":-0.008875854859698409,"56":-0.06302232729828046,"57":-0.04433972704291999,"58":0.18325582206510457,"59":-0.07303145441299187,"60":0.0837282359295642,"61":0.036706911307310075,"62":0.042840093468743776,"63":0.010966655118684056,"64":0.11605066411464135,"65":-0.012915826099660768,"66":-0.05077494888039266,"67":-0.05327448904953445,"68":0.0013829113131452794,"69":0.0589123625545847,"70":-0.025806693897258596,"71":-0.03641929133832676,"72":0.014728155516096372,"73":-0.022887085183205074,"74":-0.20026520296252376,"75":-0.007137758180594743,"76":0.03954578808291884,"77":0.06469326073850426,"78":0.05337811338177456,"79":0.0076953891823057,"80":0.05763383730188911,"81":-0.0029755604024736615,"82":0.03363421743257513,"83":0.04909925055323924,"84":-0.05691993070572039,"85":-0.08856317322996521,"86":0.0926162318643061,"87":0.04724139707002965,"88":0.003631719503079536,"89":-0.05374111018736694,"90":-0.07866340527155226,"91":0.06480452453808591,"92":-0.027049329210428262,"93":0.0038367948933275605,"94":0.1339994467288431,"95":0.024335543090270608,"96":-0.05898460690977774,"97":0.022405166391475998,"98":0.05640925764870181,"99":-0.037708471784252594,"100":0.026650293796361003,"101":0.025757605777503818,"102":0.14431815505181564,"103":0.01666341665172204,"104":0.03924939021768352,"105":0.014067381752393677,"106":0.027327942349827803,"107":0.07887336444076716,"108":0.08727127775506463,"109":-0.03433079691060856,"110":-0.004217746508650842,"111":-0.07146372397649024,"112":0.02660502750557683,"113":0.11776269604275648,"114":0.06543214001152492,"115":0.15683824506272814,"116":0.04844601958929878,"117":-0.019759808731145908,"118":-0.04975812399605411,"119":-0.05282226799859958,"120":-0.01835102294068801,"121":-0.06484844262235274,"122":0.15939833592570762,"123":0.033955829021969065,"124":-0.03857150465526655,"125":-0.03489479857089268,"126":0.042803072596248756,"127":-0.051979322966849074,"128":-0.11792171519631632,"129":0.23807832771737628,"130":-0.12392573044967378,"131":-0.045054709133031265,"132":0.025657748986844555,"133":0.08565913341441744,"134":-0.03188311944307642,"135":0.030131810375764616,"136":0.41813105249337507,"137":-0.1842742788563418,"138":-0.10116102837453583,"139":0.02478953995088722,"140":-0.009247903259992895,"141":-0.03131024756296665,"142":-0.13146577836460158,"143":0.33849256460093985,"144":-0.12569783951484367,"145":-0.05145024772349111,"146":0.04465610872105433,"147":-0.08434340918788723,"148":0.01870866290993271,"149":-0.059838403202348116,"150":0.3092790904389792,"151":-0.050043497249858036,"152":0.06456399098984078,"153":0.09340446971979169,"154":0.02305330171330257,"155":0.08112292219410791,"156":0.02104336293148661,"157":0.28763447176726487,"158":-0.10226189570223633,"159":0.10035467855535479,"160":-0.0488201647381992,"161":0.017485555609471886,"162":0.10612715970783439,"163":-0.14914557425262293,"164":0.004158260644547312,"165":-0.09541216476263721,"166":-0.048042078085326866,"167":-0.06429881366749501,"168":0.025340287630481014,"169":-0.04272197869287487,"170":-0.03882485864087616,"171":0.047287788842092504,"172":-0.1479834132639981,"173":-0.01802526972064536,"174":-0.05694966423440895,"175":-0.018548038963509577,"176":-0.011681422367273365,"177":-0.021769338108206495,"178":0.0018285528882043451,"179":-0.08958311732116254,"180":0.027080197864090008,"181":0.06896479212980858,"182":0.03335268347939368,"183":0.07965569723622895,"184":-0.025094003803411643,"185":-0.026362055265121632,"186":-0.08318055106090454,"187":0.10244587235203398,"188":-0.017851433997174135,"189":0.06658242329976355,"190":-0.009687857260557677,"191":-0.06977803515199184,"192":-0.06419911326822408,"193":-0.06389139453003316,"194":0.013998092957185671,"195":-0.041692113406836,"196":-0.08252239859739803,"197":0.07599074000591086,"198":-0.09276133031021701,"199":-0.044351550165701525,"200":-0.1725985937412939,"201":0.007678319288141631,"202":-0.037704074353433085,"203":-0.03185309658732229,"204":-0.0295505375272658,"205":-0.010004357179976012,"206":0.09324329294884348,"207":-0.06384311556984043,"208":0.07441944428352351,"209":-0.06495786913611087,"210":-0.03631485809358225,"211":0.027306462064547416,"212":-0.0655445949106472,"213":-0.0680229706263565,"214":0.02190248105972146,"215":-0.047646812548988865,"216":0.05257383005383477,"217":-0.06389375308091605,"218":0.14042401576866298,"219":0.031141172875879787,"220":0.1129871692456417,"221":0.024672144177533654,"222":-0.058391312915559025,"223":-0.08176748335454075}},{"sx":1,"sy":1,"depth":224,"w":{"0":-0.030677437044623158,"1":0.11284764513034527,"2":-0.042712789051024894,"3":-0.05012538062794269,"4":0.021462811572273588,"5":-0.008677154348713129,"6":-0.06134343991744119,"7":0.0743608933560767,"8":-0.06868490772051758,"9":-0.010417688519915109,"10":-0.007091036794272107,"11":0.0594088201524773,"12":0.05914356037835198,"13":0.10462671857076407,"14":-0.045640909168069003,"15":0.021197361165979436,"16":-0.021071219861868162,"17":-0.0444882392934508,"18":-0.0011866418360999395,"19":-0.024297423994491012,"20":-0.019030357626907184,"21":-0.03285948440399487,"22":0.039394424746666046,"23":-0.03331766996270681,"24":0.008369105101460873,"25":-0.026955098557386915,"26":0.054945498465101196,"27":0.04400973636015212,"28":-0.14896290306892584,"29":-0.0059442546400249804,"30":-0.03921417373485075,"31":-0.0416630549855747,"32":0.058180928620245924,"33":-0.09354009518672168,"34":-0.08566328806752556,"35":0.04718618305221844,"36":0.024935319038728407,"37":0.037303767578892214,"38":-0.017878466495250652,"39":0.0858546515503451,"40":-0.09194976445278417,"41":0.08689545061235773,"42":0.11442856049491602,"43":0.07105546107470198,"44":-0.01696366958570091,"45":0.06413510157443128,"46":-0.034584971182661114,"47":-0.007272779931219831,"48":-0.020552723025125483,"49":0.0010585889718299094,"50":0.06145923768533329,"51":0.01707295116903458,"52":0.08837971262483099,"53":-0.0561327015430304,"54":0.011447045921839621,"55":-0.020874363140982538,"56":0.057189200560482954,"57":-0.14595404502756135,"58":0.02605809396849295,"59":0.03658680334792137,"60":0.06470355617074454,"61":-0.08004505777947596,"62":-0.03000960126680526,"63":0.08774925205499634,"64":0.13544754988372443,"65":-0.0021426954539881704,"66":0.07643621985425901,"67":0.10507763186924017,"68":0.009976445231353225,"69":-0.022968381124201572,"70":0.04467440077934652,"71":-0.024833429125804628,"72":-0.005446878169671854,"73":0.059016558805196455,"74":0.07024459825774834,"75":-0.02205643857518561,"76":0.0051235682184449915,"77":-0.03496176425599067,"78":-0.03839045358463857,"79":0.01842562782933942,"80":0.0747427385108143,"81":-0.01985664831049785,"82":0.012089612251810485,"83":-0.08433528863284749,"84":0.003141772698103758,"85":-0.014668684926833308,"86":0.03591668066307002,"87":0.07762193621913673,"88":0.07722738852231703,"89":-0.04257737197002051,"90":0.11370077569739269,"91":-0.14690568265223294,"92":0.03654572998774227,"93":0.01640062372577591,"94":0.0878729024472276,"95":0.01957427858174804,"96":0.0655856963830161,"97":0.08486834679070823,"98":0.028098955474849998,"99":0.021444072097199417,"100":0.00509632575739846,"101":0.20424491986569965,"102":-0.05118296677367726,"103":-0.006032138226926264,"104":-0.013457730686959662,"105":-0.058527486886000984,"106":-0.096303560062994,"107":0.022880539015680317,"108":0.31064659304068726,"109":0.09529953148094074,"110":-0.03144332665955279,"111":-0.08115374864630631,"112":-0.004794245817154817,"113":-0.028831959229792998,"114":-0.058842366143812795,"115":0.32806557909800227,"116":-0.17084108835867035,"117":0.01361304631096922,"118":0.016905961034202648,"119":-0.03418388379779724,"120":-0.09286525215581595,"121":-0.043779602445773357,"122":0.2531576387164993,"123":0.00009131360451636456,"124":0.011089672399816387,"125":0.14445577077808297,"126":-0.08989973266624202,"127":0.10652554631192852,"128":0.12555433850174963,"129":0.12220585654055384,"130":-0.05266697311063572,"131":-0.020281833639303786,"132":-0.06908148008748538,"133":-0.0008979840924422809,"134":0.004800059344272287,"135":0.05957269538592322,"136":0.6528052850702072,"137":-0.21457849694540462,"138":-0.0013433297233509005,"139":-0.010943705703094036,"140":0.007051825778054044,"141":0.12132047662023192,"142":0.07300403582638733,"143":0.3740108662560752,"144":-0.08494431119701695,"145":-0.08096266699519432,"146":-0.08036773660767016,"147":0.04091982286790448,"148":0.028930300473245407,"149":0.047813633532812316,"150":0.43063797874610155,"151":-0.14001962443808513,"152":-0.07395493746148663,"153":0.036549726006861766,"154":-0.07993928266052269,"155":-0.03614844776239587,"156":0.1094228830670751,"157":0.45609119517429725,"158":-0.2466234858293012,"159":-0.004925519929347023,"160":-0.03170473604417119,"161":0.019662527451047428,"162":-0.04990434215608876,"163":0.09262511980429558,"164":-0.1358963888108981,"165":-0.015737476474486294,"166":-0.03389221102358935,"167":0.05916118829924626,"168":0.09951745239568857,"169":0.018898449047763548,"170":0.025662200500572607,"171":-0.023849583800781136,"172":-0.15316738383826758,"173":0.005842863009386176,"174":-0.04996640595716712,"175":-0.013327283205194947,"176":0.006195822031484784,"177":0.01981688934587591,"178":-0.1444468814371503,"179":-0.09075956076023209,"180":-0.11311620560407204,"181":0.0009773824517529538,"182":-0.10309416865271571,"183":0.041578839900274826,"184":-0.001843138118779208,"185":-0.02966512221671713,"186":-0.19122653682986313,"187":-0.04729807264396724,"188":-0.04615367134717235,"189":-0.10877512902433033,"190":-0.07349084554644691,"191":0.07594300441020506,"192":0.033297779528135785,"193":-0.08760190344454574,"194":-0.04603258899140813,"195":0.021007746834710354,"196":0.032274860262799784,"197":0.02077569835497236,"198":0.03763773018469211,"199":-0.06623733286428493,"200":-0.10636840104884503,"201":0.02813102119297882,"202":-0.014677247758470893,"203":-0.002507535237155217,"204":0.027052742864941512,"205":0.08850044271304797,"206":0.014989774373501193,"207":-0.15080000976826513,"208":0.0014473256830129966,"209":-0.0019294895420293764,"210":0.06749636477467218,"211":0.07648061816069598,"212":0.10581948381349132,"213":-0.16086593846070552,"214":-0.007361641143370694,"215":0.002193191926294545,"216":0.026705941340472404,"217":0.03848451521157589,"218":-0.06257700683581571,"219":-0.012724842634637712,"220":-0.2146442060348693,"221":0.002373707904847943,"222":-0.055929263534376744,"223":0.08482424079111811}},{"sx":1,"sy":1,"depth":224,"w":{"0":0.06298325659965599,"1":0.0025267595562328358,"2":0.026434684896529528,"3":0.046988958714303544,"4":0.013291446737795004,"5":-0.16447628474879372,"6":0.09319994528427718,"7":-0.0003420412707022888,"8":-0.016666200099297878,"9":-0.04025682533008309,"10":-0.03960218337838542,"11":0.05493539620133433,"12":0.007782687075772501,"13":0.0053892359116638824,"14":-0.03918307063536805,"15":0.07149108813681612,"16":-0.024855492133899384,"17":-0.03866098590051638,"18":0.03582668067029005,"19":0.032342378316505487,"20":-0.03980210062847629,"21":0.012928725515481961,"22":-0.07856352993534095,"23":0.0668478660595316,"24":-0.0626614890218429,"25":0.07822521112626506,"26":0.03971529623197476,"27":-0.042501974682507465,"28":-0.0333420609959773,"29":-0.0415933953234383,"30":-0.017269733160575777,"31":0.02928160433640113,"32":0.017720993685931254,"33":-0.023140059273848827,"34":-0.08152777875824732,"35":-0.007532142095884357,"36":-0.08630884909516402,"37":-0.05291016248504353,"38":-0.12429269729594125,"39":-0.0529465759296669,"40":0.06909569628641862,"41":0.018539238057043623,"42":0.10582464450111845,"43":0.04357339899539456,"44":0.022100327205238836,"45":-0.04154980797474049,"46":-0.005256909666966753,"47":-0.05981214405414916,"48":0.0038419675810257756,"49":-0.06519851148353638,"50":-0.02614492875930146,"51":-0.0022995896366805033,"52":0.009532055972283317,"53":0.06083704047016208,"54":-0.06613158797305167,"55":0.04053522983431512,"56":-0.018644519292980704,"57":-0.054700072095880514,"58":-0.1280255649786214,"59":0.10423166502759011,"60":-0.07550567495769994,"61":0.06919648865077672,"62":-0.005122734945248607,"63":-0.0029298058113734625,"64":-0.03208927968139346,"65":0.030243113541070107,"66":-0.03400287214169015,"67":-0.09414690321842004,"68":-0.0007646556690885627,"69":-0.037612909375036384,"70":0.0857843039687785,"71":0.04287398182400205,"72":-0.030525355535608988,"73":-0.046126857222880964,"74":0.08209839199814432,"75":-0.008727705607474672,"76":-0.030423925571027965,"77":-0.02675336153065539,"78":0.06444526952824393,"79":0.012720047120903633,"80":0.07071688410038196,"81":-0.11149371801704111,"82":-0.0032799826241366433,"83":-0.1431870737712613,"84":-0.08748968162384212,"85":0.02555500808135221,"86":-0.028514371119403897,"87":0.005997994253939111,"88":-0.06622925885210412,"89":-0.07821038389043612,"90":-0.04086812337705104,"91":0.09600657796545746,"92":0.024491203050094876,"93":0.03544740660056544,"94":0.005510418132946777,"95":0.11376331285593888,"96":0.04876319439055115,"97":0.18582223041725746,"98":-0.007686517824907304,"99":0.12371050066141492,"100":0.056113747575628405,"101":0.03304433739881448,"102":-0.07216298918045241,"103":0.07683806952936584,"104":-0.14096421280960156,"105":0.0695943034612049,"106":0.0017978867253409692,"107":0.03452029324937606,"108":0.12288643996091408,"109":0.0354393869146069,"110":-0.012337436859027202,"111":-0.07088584715366564,"112":-0.03463108779432056,"113":0.041250746729747156,"114":-0.006600162571726598,"115":0.02530204181800498,"116":0.043139021475676914,"117":-0.07428767102472741,"118":-0.011895120152098258,"119":-0.13755765675918305,"120":-0.007225234459541594,"121":-0.013370231852168036,"122":0.24502366772959225,"123":0.04918757399876339,"124":0.14569497391241454,"125":-0.04757717798000569,"126":0.01585739922461257,"127":0.08158217894253199,"128":0.014115071648926959,"129":-0.04077348171682188,"130":0.06017252007112325,"131":0.05068905549518603,"132":0.013070627781922495,"133":0.018561519743158627,"134":0.08731997142860795,"135":0.08970626688261697,"136":0.34231921087419526,"137":-0.020632472549329837,"138":-0.044086188862679176,"139":-0.03881988627982134,"140":-0.042016533632969075,"141":-0.1298317189527749,"142":0.15389542814611254,"143":0.2683294379583773,"144":-0.022857672740548268,"145":-0.07569268836334644,"146":0.004816052351648641,"147":0.11295644041859002,"148":-0.00211622798900455,"149":0.2093768854003073,"150":0.30245344356259773,"151":-0.014324089891926847,"152":-0.10133869180876609,"153":-0.0740425265726528,"154":0.021071505180722285,"155":-0.007478032175534543,"156":0.04755862298465706,"157":0.24845822104512966,"158":0.031766038565156016,"159":0.013736929435090335,"160":-0.056411830396550115,"161":-0.013649803650626234,"162":0.05426123668502291,"163":0.09664644600560358,"164":-0.08996636956730397,"165":-0.05580527894373881,"166":-0.01467798926959494,"167":0.09657739315725125,"168":-0.12326105431358152,"169":-0.11144024210771415,"170":0.14215419183666733,"171":-0.040180061842966026,"172":-0.06362621631746403,"173":0.09289173863872369,"174":0.015398479070791485,"175":-0.01965288503042505,"176":-0.06424366829301964,"177":0.16267350920209805,"178":-0.14427292602630185,"179":-0.06928205500642308,"180":-0.035198405264897474,"181":0.06390807659438816,"182":-0.03948813280905756,"183":0.05437072829733357,"184":0.05188932164694202,"185":-0.01723708132641242,"186":-0.0024385735800435578,"187":-0.11222161754180128,"188":0.06527757358491429,"189":-0.026864195592620627,"190":0.06287042409345928,"191":0.15006133578529432,"192":0.05423856991231743,"193":-0.05999548132914008,"194":-0.0070832819665555,"195":0.04861434825080398,"196":-0.07990886017656586,"197":-0.04671404472470554,"198":0.17143322455490678,"199":-0.12314873007799204,"200":-0.08158474624315541,"201":0.025037120488873833,"202":0.04799612865218037,"203":0.05549246074547951,"204":0.03330828657303688,"205":0.12748454861013125,"206":-0.012333714466678981,"207":-0.05832016556519143,"208":0.020239232607224288,"209":0.07858006868703678,"210":-0.03792599153113486,"211":0.04539845784880468,"212":0.0183320537475317,"213":0.006660991635289824,"214":0.05078214472184395,"215":0.024001505108467092,"216":-0.11086405648806621,"217":-0.08850368892156119,"218":-0.10883109296938032,"219":-0.0401801413212668,"220":-0.1833495404502407,"221":-0.07140551125449779,"222":-0.10482190112897301,"223":0.03222704031233023}},{"sx":1,"sy":1,"depth":224,"w":{"0":0.030041085324405307,"1":-0.08010757713780085,"2":0.09912455463705037,"3":-0.008245221817563033,"4":-0.025790569399352224,"5":-0.09514657826621936,"6":-0.0695217399280345,"7":0.09282836466802823,"8":0.0051297978786292294,"9":-0.01635719597843161,"10":-0.025471095066253654,"11":-0.04840978849791315,"12":0.0003879747986506667,"13":0.02699482234957905,"14":-0.0754669358270711,"15":-0.016662551284753024,"16":0.03785127634879125,"17":0.037519539740642274,"18":-0.017074322791135337,"19":-0.071112944708472,"20":-0.10664704776799484,"21":0.040427819423275134,"22":0.10574064062592986,"23":-0.08116915533252954,"24":0.07921019845955389,"25":-0.03994624575477158,"26":-0.10405349710647947,"27":0.151197936063852,"28":-0.02214236968425939,"29":-0.0036145963100059813,"30":0.02166687074053648,"31":0.06218473313434034,"32":-0.11892974991561923,"33":-0.05906359978772122,"34":0.05863559515726487,"35":-0.006603214284844738,"36":0.09665352474756793,"37":-0.009891643405977183,"38":-0.018712992624642252,"39":-0.013027253143961654,"40":-0.04010358331487715,"41":-0.023358041692512155,"42":-0.11415063468066348,"43":-0.09876689470011385,"44":-0.02189498434922255,"45":0.0715414992008585,"46":-0.05083112590794314,"47":0.12879483635883002,"48":-0.012142459199875172,"49":-0.010108197203417355,"50":-0.09533342615678789,"51":-0.11580725653137124,"52":-0.015334372432709404,"53":0.012079074782033773,"54":0.06889675911672821,"55":-0.07143173202937356,"56":0.11039760982592335,"57":-0.020438395248692197,"58":-0.04420872434431978,"59":-0.26931472628047565,"60":-0.01980573408450453,"61":-0.014276493375448942,"62":0.04958032562891763,"63":0.08389483686271142,"64":-0.06803192655841118,"65":-0.02087743793311934,"66":-0.05614132862198061,"67":0.04267487559391005,"68":-0.07779818596190133,"69":-0.15495533544300982,"70":0.019372426087293965,"71":-0.03105911924490604,"72":0.0979076992806452,"73":0.052181839715296115,"74":0.08055639798727662,"75":0.06761340238651928,"76":0.13956922613115358,"77":-0.07629769792294704,"78":0.04253319329372089,"79":-0.10446764275686765,"80":-0.07814489527006538,"81":-0.0009612981986510552,"82":-0.04426067781598555,"83":0.06856653121147664,"84":0.008556220422600899,"85":-0.016529066814961232,"86":-0.050018900472906795,"87":-0.02458038452300301,"88":0.043055451092542926,"89":0.10269504830403105,"90":-0.0064738455194755335,"91":-0.1076264110300825,"92":0.0876075063144422,"93":-0.08282414815765776,"94":0.023642109218670705,"95":0.016049521963717884,"96":-0.1348160754982313,"97":-0.06284653732281281,"98":0.017015563518584343,"99":-0.044894698231556514,"100":-0.04752139241054407,"101":-0.04622811952704023,"102":-0.01989090245953789,"103":0.008319662025078122,"104":-0.071055812973039,"105":0.021439972931849672,"106":0.056619814644668,"107":0.04916102665898851,"108":-0.2264717090142592,"109":0.06823436173495742,"110":-0.015410467353566631,"111":0.08173362313040461,"112":-0.1152246518578153,"113":-0.05245280202399673,"114":-0.07191070381011962,"115":0.022483187675255267,"116":-0.041320099119235905,"117":0.00037612136516545596,"118":0.0038242009028882666,"119":0.07940317294468378,"120":-0.009963972385381952,"121":-0.15941896485437232,"122":0.020466209935405405,"123":-0.008325119468380058,"124":0.05401534619611151,"125":-0.02059345168857605,"126":0.06969884308228097,"127":0.044821889568266694,"128":-0.0079802794377966,"129":0.0353424865410947,"130":-0.015402029617136586,"131":-0.1758699623817591,"132":-0.01332400708040596,"133":-0.061244621819906,"134":-0.0695392365234433,"135":-0.0004761066547957936,"136":0.001505004984134156,"137":0.012460723988207124,"138":-0.0447025680097666,"139":-0.013842928742264178,"140":0.10756234244809086,"141":0.08292952181031868,"142":0.0022065940894891454,"143":0.0381087616960048,"144":-0.0011916799864296794,"145":-0.047089688389036585,"146":0.017450438718343925,"147":-0.0732622809881286,"148":0.05313523646666286,"149":-0.1128778313915473,"150":0.1901247993962774,"151":0.004672671936923648,"152":-0.03575913770321333,"153":0.1021602940893668,"154":-0.07545953199719174,"155":0.05443933529648012,"156":0.047027812322626296,"157":0.06709082849261257,"158":0.02652017370132677,"159":0.03735207871092286,"160":-0.06292570856481092,"161":-0.06844966576891735,"162":-0.033252516368373175,"163":0.07589379338400945,"164":0.02680328216868125,"165":-0.015011123613207347,"166":0.030245445252449682,"167":-0.06629958696163861,"168":-0.01408146464561569,"169":-0.0787083780559804,"170":-0.055425853395863485,"171":-0.1270200950992785,"172":0.03508518244071199,"173":-0.025477027473054806,"174":-0.053626255649881015,"175":0.05567249438231959,"176":-0.040435401035332795,"177":0.09828004399197342,"178":0.043861481321760765,"179":0.08869015369734369,"180":-0.07471080121696975,"181":-0.0007203730824925791,"182":0.06750964314268766,"183":-0.04064036616488194,"184":0.08209072220883466,"185":-0.05341292401486205,"186":-0.04656417589592857,"187":-0.041330701463259456,"188":-0.1216727835480751,"189":0.08474839239369979,"190":0.016254316867461493,"191":-0.07449921036276815,"192":-0.11294387260856668,"193":-0.016076414712833095,"194":-0.0017223156506328292,"195":0.002096182146530444,"196":0.01972167051388408,"197":0.02481154526853869,"198":0.058996487161525626,"199":0.01972316037658676,"200":-0.08850474302753197,"201":-0.013331911070556337,"202":-0.02298007603465763,"203":-0.02929558998900144,"204":-0.00265183759308345,"205":-0.05168355038158143,"206":0.009778168191890872,"207":-0.008304039543662625,"208":0.07451962113923563,"209":-0.015465939280159614,"210":-0.06865552883529558,"211":-0.018957774090383774,"212":-0.10345120596587574,"213":-0.03036874530618551,"214":0.018651058136429657,"215":0.018384699308998116,"216":0.0295375676802025,"217":0.048802800284023895,"218":-0.122631869723076,"219":-0.02177223879439417,"220":-0.005419197858296494,"221":-0.019471735750305887,"222":-0.03448940526003305,"223":-0.020266906649407713}},{"sx":1,"sy":1,"depth":224,"w":{"0":0.049526694958702135,"1":0.030735744738910227,"2":-0.02851070629522701,"3":0.023155370279245226,"4":-0.03370884244142516,"5":-0.02452870120839785,"6":0.015579229865011623,"7":-0.027310089811017714,"8":0.02135972296817135,"9":0.10602364850810171,"10":0.06220587199671017,"11":0.08312103483912538,"12":0.021961842632377045,"13":-0.06443830000448456,"14":0.028951088764195436,"15":0.05300261806933826,"16":-0.11936245037173072,"17":-0.06299916216167895,"18":-0.039013034006062035,"19":-0.04712257051260739,"20":0.04311743663560309,"21":-0.03978476349816421,"22":0.0816060937707929,"23":-0.09304668399967306,"24":-0.09001464323644065,"25":-0.07285924896468075,"26":-0.0070255998961172616,"27":-0.005318538480516035,"28":-0.08830445372490926,"29":0.00274970727197552,"30":0.15744873229591735,"31":-0.01650234091096749,"32":-0.07005260538474614,"33":-0.023638797879074042,"34":0.03779773347270564,"35":-0.03425241112573558,"36":-0.10069089280174341,"37":0.030925777081478815,"38":0.020915342793397906,"39":0.04277942073422766,"40":0.09063089329167474,"41":-0.015236287822184492,"42":-0.0038519475701950696,"43":0.027974771810111862,"44":0.029868444262274484,"45":-0.00956355610191826,"46":-0.10255424099666183,"47":-0.06211729588852203,"48":0.034902356703839794,"49":-0.08650031846344312,"50":-0.09394138835495726,"51":-0.020460623355271296,"52":-0.006745637205988858,"53":0.00638330899526261,"54":-0.08215296005944478,"55":-0.03696453208073601,"56":0.04003628069608966,"57":-0.04020890779620254,"58":-0.07439081500213973,"59":-0.015514786653297025,"60":-0.019707112170561,"61":0.030831572792557226,"62":-0.04468296784224433,"63":0.047768960059432264,"64":0.08364489939444836,"65":-0.09730988411745625,"66":-0.06667697367680817,"67":-0.02230133848448682,"68":-0.06154937618661935,"69":-0.1403112542874116,"70":0.0011667826301660145,"71":-0.04699423309773234,"72":0.01051042485811468,"73":-0.004931790898977413,"74":-0.004349864603271825,"75":0.05612945493174241,"76":-0.029096197705616788,"77":0.018925466417359402,"78":0.009751938109119666,"79":0.05011936905861994,"80":-0.05331925749483095,"81":-0.019803281999160424,"82":-0.08494120114663285,"83":0.09643664513175106,"84":0.07328726811616597,"85":0.0743899240441558,"86":-0.07774239740093591,"87":-0.16780176225528604,"88":0.05303037371825496,"89":-0.014651422333195977,"90":0.07244604890031553,"91":0.02333084305928959,"92":0.03318023791850349,"93":-0.07459648947831424,"94":-0.05350575983123553,"95":-0.07371535769738209,"96":-0.022737635329289248,"97":0.03632236589774997,"98":-0.007278199443902138,"99":0.05368076450972639,"100":0.03219004468015897,"101":0.14454252696146078,"102":-0.040384420715439455,"103":-0.02584238959876729,"104":-0.06105704757815711,"105":-0.0746919065994428,"106":0.0013897539659237083,"107":0.048553478473652226,"108":-0.07049301483516038,"109":0.007515483931747758,"110":-0.13487308977237566,"111":-0.12143367244075311,"112":0.030435192631511593,"113":-0.0018844711942905845,"114":0.06142198157240365,"115":-0.07862998969960301,"116":0.032345912581031276,"117":0.0014450187884395395,"118":0.08461845998694421,"119":0.02052964230807493,"120":-0.03128965225869341,"121":0.12067623060304788,"122":-0.11531654197900153,"123":-0.023520776897253397,"124":0.0615209165128853,"125":-0.01269733306717194,"126":0.030942413521087817,"127":0.15534043318712945,"128":0.014859626994231314,"129":0.00017667384725347053,"130":-0.02425170691435894,"131":0.11760802065506316,"132":0.007457128499927836,"133":-0.052419733888819445,"134":-0.017700915389181778,"135":0.0566310327092642,"136":-0.05410765648404491,"137":0.06706705338195564,"138":0.006365159623811297,"139":0.16533475792686408,"140":-0.05116080984903532,"141":0.04233676059270794,"142":-0.11443713198585612,"143":-0.08208613695876331,"144":-0.0005504577548094031,"145":0.04464344281026421,"146":-0.05905726100156063,"147":0.06931211215965913,"148":-0.10873371428357557,"149":0.027335589944322832,"150":0.055360738471593667,"151":0.008546005904022455,"152":-0.11779365931620228,"153":0.001888021204622086,"154":-0.00031531094119758787,"155":0.0016221933179684349,"156":0.07464261687337531,"157":-0.05391046490109253,"158":-0.08226183070662252,"159":0.012310155110397335,"160":-0.005217568387795067,"161":0.046501882259572455,"162":-0.11374156730766036,"163":0.032482989432800854,"164":-0.018601549913755892,"165":-0.037838997070270254,"166":-0.04715906889970898,"167":0.07808201315213742,"168":-0.11551338354082569,"169":0.0046872468574474194,"170":0.013125394426248702,"171":-0.10512754546970712,"172":0.024896702909491038,"173":-0.06127065607193037,"174":0.0030146920044808066,"175":-0.048154855915337386,"176":0.08262125191023888,"177":-0.07643080451277681,"178":-0.10493342387688091,"179":-0.0940948771956822,"180":0.026410133168726497,"181":0.07184213586555048,"182":0.007362776953595541,"183":-0.01639196202618315,"184":-0.06567065006385801,"185":-0.005849874054073207,"186":-0.01520395140450708,"187":-0.014703944665487391,"188":-0.07148398224437615,"189":0.03926831541008846,"190":0.033729926048269236,"191":-0.009309109436754752,"192":-0.10221877053243887,"193":0.08242892140051887,"194":0.1154120172472379,"195":-0.046407306986254775,"196":-0.04429506915086831,"197":0.06380245165559216,"198":0.07650693726071897,"199":-0.08021720459350336,"200":-0.07088353407177085,"201":0.12096502140234157,"202":-0.18943580212309732,"203":0.024559198316804712,"204":-0.027367808594714552,"205":-0.06791361076640272,"206":-0.02259486158108657,"207":0.02360036370735598,"208":-0.08968421650145268,"209":0.06294093082028805,"210":-0.029572085296314894,"211":0.013231035975725274,"212":-0.08006413901274793,"213":-0.05729058593107036,"214":-0.041144790531666135,"215":0.03501875704955643,"216":-0.045201322416089304,"217":-0.07808111628599115,"218":0.013289884037324938,"219":0.10004475001843338,"220":0.03465179838305822,"221":-0.0984453453060613,"222":0.1866865178822901,"223":-0.04767928557424024}},{"sx":1,"sy":1,"depth":224,"w":{"0":0.03283717435294704,"1":0.17080229015233214,"2":0.07838550888910331,"3":-0.008106581339109018,"4":-0.015189987394706398,"5":0.044025901576458935,"6":-0.10167226809163321,"7":0.0911634298523613,"8":0.013862169774839114,"9":-0.047915033262172654,"10":0.0029412430893035343,"11":-0.11333874902288418,"12":-0.064991140521491,"13":0.11347806607849215,"14":-0.004899063203700126,"15":0.04979864558430495,"16":0.0970549492808823,"17":0.08252571829963336,"18":-0.12240851452387512,"19":-0.08255437961505041,"20":-0.03523056632860741,"21":0.07554453637540623,"22":0.031637721585471186,"23":0.06329520324601542,"24":0.007817904424251261,"25":0.12257214106191512,"26":-0.10309654185361451,"27":-0.02582394503956708,"28":0.08996631171604101,"29":0.010030721917099888,"30":-0.008046413710126404,"31":-0.03995215129251113,"32":-0.06000614163044587,"33":0.008335145554714173,"34":-0.014876100446090754,"35":-0.09163525133246436,"36":0.021687902368505426,"37":0.02031411673590419,"38":0.011355990973897119,"39":0.01256362246618638,"40":0.04081135201144421,"41":-0.14284874379081317,"42":0.07884383488145859,"43":0.0859950215505257,"44":-0.024568230861553086,"45":0.08540852174047946,"46":-0.06221296122559953,"47":0.03249683428790299,"48":-0.030838053753280914,"49":0.03102484736308281,"50":-0.0027692352691241506,"51":0.09623809932497682,"52":0.030252908243037897,"53":0.047749150047076,"54":-0.04464732059026672,"55":-0.0184900186214922,"56":0.07717419847399551,"57":0.1254927724686848,"58":0.09522735086092628,"59":-0.012471002722576889,"60":0.01763955166427163,"61":0.1158208303968447,"62":-0.030950112060435398,"63":-0.021236367041956184,"64":0.09212557441541988,"65":-0.014920694855476986,"66":-0.06772693127310064,"67":0.04932138982419382,"68":-0.024927453644026532,"69":-0.003411022828382437,"70":0.1310933074634912,"71":0.10016024951459215,"72":0.03867905619559624,"73":0.01628548290732813,"74":0.024049541936130944,"75":-0.006588867428614667,"76":-0.08518361059877438,"77":0.08225056091533851,"78":0.029925008904883747,"79":0.08583490509392606,"80":0.015828687672335133,"81":0.11120912374980829,"82":0.07469060034409694,"83":-0.08404421405314823,"84":0.1637689206004709,"85":-0.012494609093837159,"86":0.06138759240267918,"87":0.03298830147516046,"88":-0.044223127452462464,"89":-0.09930229312776745,"90":-0.008960833099560918,"91":0.023581981855904145,"92":0.09745442831759324,"93":-0.0052648592914343794,"94":0.006121788573831695,"95":0.049891115684212874,"96":-0.04808369013694743,"97":-0.10775409935231334,"98":0.05371750711507499,"99":0.01000836990175917,"100":0.037112908826521414,"101":-0.06286505174979748,"102":-0.0549078674143854,"103":-0.21281964959886301,"104":-0.12165625697289617,"105":-0.05996065553989936,"106":0.04027923371496507,"107":0.09809247941062343,"108":0.0056262422246375855,"109":-0.03714948894708978,"110":-0.004223030077028984,"111":-0.07772265590305688,"112":0.06150628391627783,"113":-0.013509323515246153,"114":0.007579949001349104,"115":-0.01418614881211244,"116":0.025698279221996984,"117":0.02640007094541874,"118":-0.1936530546621078,"119":-0.013275831757765678,"120":0.08230802637063668,"121":0.0226572328301782,"122":0.0668329976504531,"123":-0.08537925880067722,"124":-0.0954446987643049,"125":-0.013398730463486433,"126":-0.017260639669273856,"127":-0.0371105832559818,"128":0.049826331408543714,"129":-0.07695827602142344,"130":-0.03211480045965783,"131":0.07218605401771547,"132":-0.006342506155467693,"133":-0.1382552385372772,"134":0.002936523245996301,"135":0.05461300336191222,"136":0.10729407888666131,"137":-0.07688891750030623,"138":0.03129307398250666,"139":0.0356355452515366,"140":-0.19684132802081689,"141":0.0021074622005677504,"142":0.13146526527679855,"143":-0.03072456607759409,"144":-0.02738617862320909,"145":0.004761807909041181,"146":0.10525515014132451,"147":0.0022096118219576705,"148":-0.0933182303743223,"149":0.049821878225283826,"150":-0.03134063759648947,"151":0.0796310998331555,"152":-0.020630885426431572,"153":-0.07233939824909529,"154":0.06408393999460993,"155":0.12146670257103408,"156":0.1646988445429867,"157":-0.0102954299779193,"158":-0.07450255977782035,"159":-0.09094806024889493,"160":-0.04484555988354221,"161":-0.06156393369316949,"162":0.007811425883172382,"163":0.09635977958987524,"164":0.03702109317526572,"165":-0.005219948721276946,"166":-0.040199448460145205,"167":-0.1518511628654514,"168":0.14480218737167327,"169":0.07156761206513094,"170":0.15146367492233906,"171":-0.10327392205482501,"172":-0.014731801294508177,"173":-0.042645831758625706,"174":-0.03708345192424526,"175":0.14753435909072868,"176":-0.04050435096342474,"177":0.09056910054178481,"178":-0.015795141331832085,"179":0.0803270258104918,"180":0.015349215027442322,"181":-0.06635796535362593,"182":0.11735600600203257,"183":0.017261623568629644,"184":0.056505847928191015,"185":-0.013638172523598857,"186":-0.0704594789351907,"187":-0.04149632503979685,"188":0.023650301388649424,"189":0.006481682025253884,"190":0.07794750143949827,"191":0.1343991314363357,"192":0.050770751424310825,"193":-0.03648506726909971,"194":-0.18579775687176242,"195":-0.054243805165312506,"196":-0.010363770909124038,"197":0.0743353395141062,"198":0.042654614867332484,"199":-0.04789586963012211,"200":-0.1686592564435492,"201":0.02621712426348312,"202":0.0065052640772050915,"203":0.06959020522891798,"204":0.14216640888274873,"205":0.11596494106009395,"206":0.0002514303323121747,"207":-0.06884153252269813,"208":0.02284475749999003,"209":-0.09573346286856281,"210":0.013820095144546112,"211":-0.044954432560052104,"212":0.04548771133340267,"213":0.060352147638598724,"214":-0.06440566706889572,"215":-0.09709609975294489,"216":-0.03627095575330809,"217":0.0696752454659609,"218":0.017560329248917678,"219":-0.07584555980741278,"220":-0.015316472613105266,"221":0.15124513887053237,"222":0.03637785015034099,"223":-0.08900406741577749}},{"sx":1,"sy":1,"depth":224,"w":{"0":-0.0014622411947595479,"1":-0.000635897392031189,"2":0.0248450214182916,"3":0.012346384065701693,"4":-0.02679393457918913,"5":0.03348066000690063,"6":0.038512889300356117,"7":-0.044039663897425065,"8":-0.026108468729092813,"9":-0.016306279179106726,"10":0.042405263890560464,"11":0.04219645036815914,"12":-0.03851529278574584,"13":-0.10522772996098756,"14":-0.027315826025181702,"15":-0.0068210391039073715,"16":-0.013904426629076944,"17":0.051243598220208034,"18":0.08834161843958438,"19":0.008496208832650613,"20":0.055487916390983515,"21":-0.09014743979753563,"22":0.06539269239113811,"23":0.004384044931652928,"24":0.0313465329390212,"25":-0.07507362427864438,"26":0.04896822098659357,"27":0.06797709583898115,"28":0.10259970103977104,"29":-0.004108108204854976,"30":0.029764263023006245,"31":0.01900114759158885,"32":-0.04377202708310764,"33":-0.013622291389736705,"34":0.0070548811892637365,"35":-0.07509973734648384,"36":0.0680347657568253,"37":-0.054197076026511096,"38":0.014801133082519182,"39":0.007387160811383156,"40":0.05645469063745958,"41":-0.026675709891113685,"42":0.034676451582068245,"43":0.07053223786564793,"44":-0.07927480977940823,"45":0.05743775684539801,"46":-0.0023081216079832772,"47":0.019750565051281692,"48":0.004704237004972023,"49":-0.15414435241647045,"50":-0.06133224527941271,"51":0.08084735265615103,"52":0.004007633191175629,"53":0.08251955209798219,"54":-0.03215407190002412,"55":0.12236155198331872,"56":0.08978863613314295,"57":-0.04903460171320484,"58":-0.023555104926175185,"59":0.10640732443644305,"60":0.02230403572018915,"61":-0.0018124538613979552,"62":-0.013841678741954997,"63":-0.01754001781796421,"64":0.026163086218893312,"65":-0.022452527909940553,"66":0.07731294805518954,"67":-0.04018995206456663,"68":0.03993073020696277,"69":0.05453206078227912,"70":-0.009595923827555008,"71":-0.011922536865698585,"72":0.006891633871320794,"73":0.10652628320217485,"74":-0.006511384922145437,"75":0.09972335814503108,"76":-0.004073742855928994,"77":0.049288531094956796,"78":-0.027939690370540806,"79":0.017934423328415577,"80":0.10153438556270657,"81":0.05090748741694277,"82":-0.05402816839968952,"83":0.04874255077578739,"84":-0.025206836564490243,"85":-0.02527744339158572,"86":-0.039552875319046284,"87":0.020250655456460338,"88":0.011937852234618277,"89":0.015478043293406282,"90":-0.04372274105598691,"91":0.05139954473647161,"92":-0.09503244157237886,"93":-0.023623399159322343,"94":0.10716756645246975,"95":-0.07221184855430837,"96":-0.018090631548286402,"97":0.03719130350733541,"98":0.02129424778740832,"99":0.07461073000012558,"100":0.048716738937378906,"101":0.07287312680785644,"102":0.04514787031286529,"103":-0.0722517188866538,"104":-0.0028065870465029587,"105":0.08970429797125222,"106":0.034864551075214294,"107":0.15334030248184374,"108":0.25657173986688436,"109":-0.13304041581086667,"110":0.035334347696005734,"111":0.04205609238077805,"112":-0.031189595334174054,"113":0.06974347288558373,"114":-0.01734492981557929,"115":0.3196304552446735,"116":-0.019868938759234393,"117":0.010111522629782889,"118":0.032004604012864285,"119":0.046018194132758365,"120":0.031205164095762006,"121":0.13105238385837564,"122":0.2797024550169928,"123":0.00942578333546697,"124":0.03116949886803085,"125":-0.01829217603420515,"126":-0.0007642818300633769,"127":-0.032509797329519356,"128":0.03334684278205485,"129":0.17800578280673315,"130":-0.03123510249218448,"131":-0.015042513941052663,"132":0.0418620776619167,"133":-0.03436059028588886,"134":-0.02623248235572508,"135":0.024381141838312102,"136":0.4754903202052485,"137":-0.0007400374605605023,"138":0.0038451689132724446,"139":0.0695052507064454,"140":-0.026359840171696656,"141":-0.033311140092965354,"142":0.14807386432114883,"143":0.5049441657761964,"144":-0.18899825049858426,"145":0.11844489268308725,"146":-0.05140269986544044,"147":-0.06682157924077829,"148":0.008659367091115004,"149":0.07403353105873213,"150":0.43590856646601267,"151":-0.22274698261742143,"152":-0.026404608194306792,"153":0.029781056315079116,"154":0.01212287562420713,"155":-0.01441393986370408,"156":-0.0033143293559381847,"157":0.3337042779889315,"158":-0.15658876541690728,"159":0.0051188032406637605,"160":-0.03928782499416888,"161":-0.06324803736227473,"162":-0.0848076561200287,"163":0.07674032989109528,"164":-0.0347393297689596,"165":-0.14240538405172992,"166":-0.05556107536766563,"167":-0.032310362755614525,"168":-0.03553845877412181,"169":-0.0016747294636347684,"170":0.08644425414547575,"171":0.04078745677812994,"172":-0.14603768728290692,"173":-0.023283118254414897,"174":0.00482782910547165,"175":0.06960706761739988,"176":0.07559909749569099,"177":0.14713094689488912,"178":-0.11536709056746343,"179":-0.1764656377443565,"180":0.08621545589344266,"181":-0.022594972775566182,"182":0.03000298352702718,"183":-0.150791167603846,"184":0.02761511622346398,"185":-0.03380251183687362,"186":-0.21471543442376398,"187":0.03922451985357752,"188":0.014509457265633033,"189":0.006752518787521496,"190":0.07254672532937785,"191":-0.06439152106282985,"192":0.009421460548180686,"193":-0.194485026502469,"194":0.022015989438843975,"195":-0.015035871879058431,"196":0.029384851751581936,"197":-0.0058353216029249635,"198":0.053137821842828954,"199":0.007467067448654353,"200":-0.2096744961595539,"201":-0.022737004947961676,"202":-0.06547008508309596,"203":-0.0012140091022132865,"204":0.004588112919004214,"205":0.1571215597042667,"206":0.04586702845676526,"207":-0.21493541300695146,"208":0.00457946900617654,"209":0.06922292902452813,"210":0.020025954924299042,"211":-0.1276267138164783,"212":-0.08354119151877241,"213":-0.1468999872590118,"214":-0.0334061254459645,"215":-0.02797774812511008,"216":0.0008857625626083591,"217":-0.016335759368137026,"218":0.0019570280502268305,"219":-0.12515932353042575,"220":-0.09689185683900192,"221":0.029190694177399817,"222":0.09267592239919036,"223":-0.044437194404457356}},{"sx":1,"sy":1,"depth":224,"w":{"0":-0.13763984740842722,"1":0.02549307598252924,"2":0.16999902233362005,"3":-0.011013735806157004,"4":-0.0711295884099329,"5":-0.06239936914178782,"6":0.030409450113063438,"7":0.010004884026944428,"8":0.05579768212268945,"9":0.05673551213724353,"10":0.04116321806774387,"11":-0.01564162944540676,"12":0.004934748673750959,"13":0.047793205867832984,"14":0.014804808801296948,"15":0.0061319115872118055,"16":0.00400519042273413,"17":0.12019243495728994,"18":-0.02041736522678469,"19":-0.02735199569258924,"20":-0.055511032477602085,"21":0.011080507665835248,"22":-0.01528749662505196,"23":-0.005755836060192672,"24":-0.07075777040752658,"25":0.01489767606823863,"26":-0.04576048102984128,"27":0.05279361957326763,"28":-0.04365361299702014,"29":0.03575822041868525,"30":-0.0919814562586351,"31":0.005948238808860989,"32":-0.0006379651762917744,"33":-0.12350828122411954,"34":-0.03802285744261226,"35":0.07940934483290596,"36":-0.04090588315995811,"37":0.1244604775229622,"38":-0.12080496365081039,"39":-0.03719031943633262,"40":0.03989220579780027,"41":-0.00420817044179942,"42":-0.018246798375873664,"43":-0.10613323347803326,"44":-0.042566750433015,"45":-0.036135999304666294,"46":0.02736913289561431,"47":-0.024261437052694807,"48":-0.062131291912306076,"49":-0.07711172914169084,"50":-0.14582096592364602,"51":0.08876795193363929,"52":0.005306234546180214,"53":0.008194773411547911,"54":-0.14229443496797592,"55":0.04992716910410105,"56":-0.026616565737243376,"57":-0.11772852380351631,"58":0.05637626579328366,"59":-0.03794917824729853,"60":0.11269391055094977,"61":0.0173766298081065,"62":-0.032665301729393935,"63":-0.03048796051324146,"64":-0.07511154243844533,"65":0.04276915751089728,"66":0.07307319455402736,"67":-0.013873224213265048,"68":0.07959383056973451,"69":0.004784090857470976,"70":0.0649823068816456,"71":0.019603246351175573,"72":-0.007864627251893744,"73":-0.03395825868544792,"74":-0.033625474665962836,"75":-0.05297875844823086,"76":0.07746410720384042,"77":-0.019156821671775525,"78":-0.044391309859878325,"79":0.04866405651071638,"80":0.06142510517109892,"81":0.017415788769613007,"82":-0.14310428973505288,"83":-0.1944936746406055,"84":0.03112413355745807,"85":-0.0029457283157306073,"86":0.014418177519152019,"87":0.05686822254944201,"88":-0.07633963335286914,"89":0.1055719353682304,"90":0.031787036364659425,"91":0.05714371111193543,"92":-0.03046104718525978,"93":-0.048338803749124595,"94":0.018759570415253352,"95":-0.10942359276322206,"96":-0.06685466833097392,"97":-0.039362658707864026,"98":-0.04252350953865134,"99":-0.015818335334008653,"100":0.035924341078108164,"101":0.06310255704420134,"102":-0.08058463097693795,"103":-0.10024426136517468,"104":-0.020715542563522017,"105":-0.07846273187312504,"106":0.008608922708231792,"107":-0.013867380688784887,"108":-0.007128915229040329,"109":-0.11361841041997618,"110":-0.10282598785745245,"111":-0.059159675272303,"112":0.020453316137049093,"113":0.02620783019588726,"114":-0.0023717405742058723,"115":-0.08544817185147775,"116":-0.0577643229780262,"117":-0.015075148599480467,"118":0.010110297008554784,"119":-0.09662531277291636,"120":0.06408905244864578,"121":-0.040013408167880564,"122":0.05953031507814697,"123":-0.030118844482307904,"124":0.04236483350954661,"125":-0.06968079082243774,"126":0.15469523746135244,"127":-0.007922294247500496,"128":0.06722413158024683,"129":-0.01640320126380584,"130":-0.0919551351643053,"131":-0.005792140114929119,"132":-0.08003769158561976,"133":-0.013249610898287507,"134":-0.04392124105789188,"135":-0.11156033172478289,"136":0.05070811405143258,"137":0.03078663618683704,"138":0.07712922322106344,"139":-0.13291028789479278,"140":-0.024036999024411383,"141":-0.03311226693746605,"142":-0.03050792291432769,"143":0.0177330269508169,"144":0.02251493862939019,"145":-0.13226243313271385,"146":0.013859983981033875,"147":0.009279107041289819,"148":0.05098197109529917,"149":0.0605299059991537,"150":-0.06666232902752336,"151":-0.024626455330895376,"152":-0.05227621010557338,"153":-0.054867434589273595,"154":-0.009667001423934552,"155":-0.00931429419127526,"156":-0.04119408912956284,"157":0.06589555059496659,"158":-0.08194013894365287,"159":-0.020323295293478354,"160":0.10114931062973143,"161":-0.08960806096090633,"162":0.09487299700142952,"163":-0.10787923079839352,"164":-0.1836075719969726,"165":0.09143357694827041,"166":-0.20401607175604367,"167":0.013644629444499585,"168":-0.014718917015927008,"169":0.00925748680096332,"170":0.1021653062558265,"171":-0.05846887992113071,"172":0.15432601093797857,"173":-0.011191054477694478,"174":-0.04266007352406034,"175":0.05964362388319381,"176":0.03238386307370015,"177":-0.09859790896861402,"178":0.008368797338368065,"179":-0.0032293106443769,"180":-0.007472986023591338,"181":0.011869201810188268,"182":0.03777163869371592,"183":0.03521552248032269,"184":-0.043108528137616314,"185":0.015228486862397757,"186":-0.04322531243589862,"187":0.07856117390940164,"188":-0.03450725972218818,"189":0.06125144181245543,"190":-0.07143502152183326,"191":0.06800001478896825,"192":0.02004690463945102,"193":-0.03609759666069878,"194":-0.06790825709438571,"195":0.08105191410641235,"196":-0.012669234654931347,"197":-0.07998809055747065,"198":-0.04669303168624313,"199":-0.020907092823918783,"200":-0.014067343592959067,"201":0.013902186786621943,"202":-0.05590918497041343,"203":0.03770494028774812,"204":0.019209805787784143,"205":-0.042717641089889485,"206":-0.04177154884207258,"207":-0.07600288795450146,"208":-0.1228082044696758,"209":-0.0062563338142985845,"210":0.008470532962478919,"211":0.01924257920737995,"212":-0.15531594537874396,"213":0.058521225066457946,"214":-0.0417590875303514,"215":0.03256160359286276,"216":-0.030061825577312216,"217":-0.027695431794635704,"218":0.0384558576169167,"219":-0.10454322031506195,"220":0.016741651024574804,"221":0.028284140450433422,"222":0.08060105916370609,"223":-0.13283827690259256}},{"sx":1,"sy":1,"depth":224,"w":{"0":-0.006498787012593446,"1":-0.027888377152809018,"2":-0.04008044809736461,"3":0.03399558260427081,"4":-0.010937000799390124,"5":0.016267805736717485,"6":-0.027672184636861878,"7":0.13010440089874023,"8":0.010039979410426423,"9":0.018177496488553345,"10":-0.037208397982300245,"11":-0.0253528713980285,"12":0.05594427550623243,"13":-0.0008067653744685009,"14":-0.058890204173103824,"15":0.11347915919165917,"16":-0.05105219664748898,"17":-0.015105491444330845,"18":-0.010593621547170789,"19":-0.0004419968621130984,"20":-0.03212244835018741,"21":0.03388856579043056,"22":-0.16436465495776947,"23":0.03650657446167259,"24":0.02447417548943615,"25":0.05952331641636871,"26":-0.11878152688030498,"27":-0.05832041874094588,"28":-0.033822854376663984,"29":-0.026808404790264192,"30":0.001014297222746628,"31":-0.05538101412886991,"32":-0.03862313962325177,"33":0.035348796684404396,"34":0.012277047134098372,"35":0.03921446982575327,"36":0.008921676841047985,"37":-0.08784357256143568,"38":0.020854269164709713,"39":0.040808970148153885,"40":-0.04910462619238926,"41":0.04322189322051017,"42":-0.09807627014364712,"43":-0.07610047004249883,"44":0.004856671922686772,"45":0.029565126093511356,"46":-0.09278459040798712,"47":0.09892613271909785,"48":0.01751121998037059,"49":-0.08591741917897094,"50":-0.014039539090810738,"51":0.04933174548180947,"52":-0.005035664766009806,"53":-0.05271592888810018,"54":-0.06976510993429064,"55":-0.02015930898120561,"56":0.07617889535962916,"57":0.1718748968530491,"58":-0.04963836124531482,"59":0.01671185862101937,"60":0.04865716064463579,"61":0.03102944906115214,"62":-0.050398956380157664,"63":-0.0016336290315761748,"64":-0.10021769383275574,"65":-0.01782751464251474,"66":-0.06662829862441823,"67":-0.036552311593357964,"68":0.000057943048168908184,"69":0.054631706994207135,"70":0.02436795025897312,"71":0.016806853803540238,"72":-0.09187630691752971,"73":-0.023445515276483784,"74":-0.14253379900211224,"75":-0.015035786448126632,"76":-0.14702326390877096,"77":-0.1349275799256551,"78":-0.05792228249431702,"79":0.06718689274559496,"80":0.06535608449576631,"81":0.10008761703341397,"82":-0.05695866687240529,"83":-0.0018685339019526902,"84":-0.05692490962993881,"85":0.010827640388284779,"86":-0.00498911737345941,"87":0.047433471055254785,"88":0.09447700038426772,"89":-0.00944482351774489,"90":0.04285395480743485,"91":0.1385619103869686,"92":-0.005127783238956091,"93":0.03526770791718214,"94":0.023777366661661723,"95":0.10580658752562029,"96":0.01952934099978774,"97":0.14327758776034677,"98":-0.02272473826281724,"99":-0.009682809112244032,"100":0.08618140902939932,"101":0.010465318033386722,"102":0.09562206541784796,"103":-0.0683532327925122,"104":0.07580602345771414,"105":-0.08556560304743191,"106":-0.0071683093648434604,"107":0.14975239971078963,"108":0.1552275040219152,"109":0.008203776987357116,"110":-0.07923967074636527,"111":0.008177066004020012,"112":-0.11186913002381982,"113":0.02216766747464533,"114":-0.05424068157416124,"115":0.031044573270604326,"116":0.07032949185923362,"117":0.04559981382803839,"118":-0.008634554662401981,"119":-0.011313982641294152,"120":-0.020203965242297058,"121":0.14533448638696617,"122":0.018377797067765565,"123":-0.06993721642298907,"124":0.01501580097243544,"125":0.01106432324507501,"126":-0.0197405689457759,"127":-0.05338598202013182,"128":0.06563534066350811,"129":-0.038292085604585094,"130":0.01680669776812878,"131":0.1164598842828041,"132":-0.08642392429107142,"133":-0.016604509178451382,"134":-0.02025843446089012,"135":0.044224008354774705,"136":0.24982594527129048,"137":0.02741188548939119,"138":-0.06768037815702453,"139":0.08725564755248341,"140":0.02514510546800623,"141":0.09293000514384568,"142":0.32280967056100374,"143":0.17807861837425032,"144":0.11402160911009575,"145":-0.04104690375068633,"146":0.06152268473014765,"147":-0.07685564657770359,"148":0.005018294893023826,"149":0.2263762299187487,"150":0.24770426579586274,"151":0.11676120211957422,"152":0.08751247397937752,"153":-0.03761857267634787,"154":0.0008844602964117775,"155":0.044150603716099655,"156":0.205535183557253,"157":0.2614038485296345,"158":0.06534581709417805,"159":-0.021066935321871275,"160":0.02796269069086524,"161":-0.020626786446017897,"162":0.02498445589085169,"163":0.2006034178731728,"164":-0.2964658630711133,"165":0.024056071590769185,"166":0.02805543132813956,"167":-0.0846897961059238,"168":-0.0006383576426421169,"169":-0.09151393475217291,"170":0.3300887944811476,"171":-0.08876628810405716,"172":0.06568419608462081,"173":0.10691506600466041,"174":-0.09868722621811193,"175":-0.018816086578330917,"176":-0.06170473191319498,"177":0.23232384633055123,"178":-0.26413998008518985,"179":0.16825177828922908,"180":-0.12437211357550877,"181":0.012765133901893117,"182":0.01056653849546021,"183":0.09600931070567979,"184":0.2297216953742926,"185":0.012057220732711517,"186":0.01670049202413587,"187":0.04401232408235097,"188":-0.056914167198717065,"189":-0.002928144931360653,"190":-0.035920901705256005,"191":0.07929991104057638,"192":-0.05789492671416462,"193":-0.02186379405841881,"194":-0.08883180072145773,"195":0.12812794524025795,"196":-0.037062068912934884,"197":-0.10173749049248951,"198":0.2074002276613444,"199":0.09395222290298434,"200":0.011016106589879959,"201":0.034321554999481425,"202":-0.015023454995403886,"203":-0.006347492516654214,"204":0.058280770722172796,"205":0.2719130548298168,"206":0.005761396048055844,"207":0.19233188579108879,"208":0.0379317785274669,"209":-0.06819257966182998,"210":-0.029163806891042303,"211":0.009431088774299672,"212":0.014881211122180195,"213":-0.17308981890134725,"214":0.024768993056925617,"215":0.04473557467069464,"216":0.03774343019679491,"217":0.012675554666785526,"218":0.012473245239499874,"219":0.001211380629610969,"220":-0.3146424127655398,"221":-0.16392731395133045,"222":-0.0024345832722497437,"223":-0.029089029532122713}}],"biases":{"sx":1,"sy":1,"depth":16,"w":{"0":0.18021880070262594,"1":-0.24882946112316282,"2":0.09629381788516822,"3":0.17348899222797984,"4":-0.206128579860271,"5":0.11962998471275724,"6":0.13909756998298178,"7":0.09535545013811186,"8":-0.02605293321396805,"9":-0.014533138471816965,"10":0.09108934274953012,"11":0.08166649094346884,"12":0.11893186598408902,"13":-0.018885316150937463,"14":0.09617049871752106,"15":-0.1225085175081927}}},{"out_depth":16,"out_sx":1,"out_sy":1,"layer_type":"relu"},{"out_depth":5,"out_sx":1,"out_sy":1,"layer_type":"fc","num_inputs":16,"l1_decay_mul":0,"l2_decay_mul":1,"filters":[{"sx":1,"sy":1,"depth":16,"w":{"0":-0.20699768401962743,"1":0.6930384070142657,"2":-0.19540278702207917,"3":-0.11682155017661434,"4":0.5283091956302705,"5":-0.02264373601861355,"6":0.04710716560169701,"7":0.33271635758483253,"8":-0.08075763644565224,"9":0.3681754666092623,"10":0.12805642519834956,"11":-0.013095729162044269,"12":-0.20411349131040057,"13":0.4361308820959978,"14":0.2604135057990789,"15":0.1872367748291651}},{"sx":1,"sy":1,"depth":16,"w":{"0":-0.07486905530174878,"1":0.9954490899680712,"2":-0.4455782506141138,"3":-0.29541494559301257,"4":-0.10528481469355008,"5":0.033420904176553495,"6":-0.3587960366808394,"7":0.5267619290660773,"8":0.9406462401141483,"9":0.3521837427005707,"10":-0.371833844405402,"11":-0.6670864732130628,"12":-0.29056715985881637,"13":0.8724722977249842,"14":0.05607801808951085,"15":0.24640320041482255}},{"sx":1,"sy":1,"depth":16,"w":{"0":0.12837415330876892,"1":0.7310874274011946,"2":-0.34853606876199655,"3":-0.06516535604005662,"4":0.03190446688126699,"5":-0.2795184385930721,"6":0.02347078928126688,"7":0.3141910108494072,"8":0.5091462612154128,"9":0.28758858328061426,"10":-0.2251864009941546,"11":0.04396169551179529,"12":0.1329580188600396,"13":-0.036130225482317965,"14":-0.1861909856159657,"15":0.1780434339812285}},{"sx":1,"sy":1,"depth":16,"w":{"0":-0.5695368591013859,"1":-0.36727400366295115,"2":0.3285545456960286,"3":0.7071351738114843,"4":1.174821610972479,"5":-0.46309615493526424,"6":-0.05602363689164581,"7":-0.21534315264114287,"8":0.33662106656865776,"9":0.49234701030885203,"10":0.12788951463927736,"11":0.3381006202338864,"12":0.18888625166632453,"13":0.5934071218933973,"14":0.22932227039358752,"15":0.869556026101637}},{"sx":1,"sy":1,"depth":16,"w":{"0":-0.01083306925422984,"1":1.4650696677644222,"2":0.22371601323792423,"3":-0.72605126120427,"4":1.0790135145381483,"5":0.5196951221348463,"6":-0.32743521746727133,"7":-0.44985807097983416,"8":-0.5840171761509658,"9":-0.14625266578670565,"10":0.09379432971625877,"11":0.08351605533224594,"12":-0.4506071611319581,"13":-0.7668894831429707,"14":-0.12287106614075027,"15":0.33532340472823374}}],"biases":{"sx":1,"sy":1,"depth":5,"w":{"0":0.0406824627398631,"1":-0.23212885278019893,"2":-0.048370304710481773,"3":-0.27964354229972066,"4":-0.05305569689786436}}},{"out_depth":5,"out_sx":1,"out_sy":1,"layer_type":"regression","num_inputs":5}]});
}